<?xml version="1.0" encoding="UTF-8" standalone="yes"?>
<PMML xmlns="http://www.dmg.org/PMML-4_4" xmlns:data="http://jpmml.org/jpmml-model/InlineTable" version="4.4">
	<Header>
		<Application name="SkLearn2PMML package" version="0.87.1"/>
		<Timestamp>2022-11-20T05:27:42Z</Timestamp>
	</Header>
	<MiningBuildTask>
		<Extension name="repr">PMMLPipeline(steps=[('vectorizer', CountVectorizer(stop_words=['i', 'me', 'my', 'myself', 'we', 'our', 'ours',
                            'ourselves', 'you', "you're", "you've", "you'll",
                            "you'd", 'your', 'yours', 'yourself', 'yourselves',
                            'he', 'him', 'his', 'himself', 'she', "she's",
                            'her', 'hers', 'herself', 'it', "it's", 'its',
                            'itself', ...])),
       ('classifier', LinearSVC(C=1.5, class_weight='balanced'))])</Extension>
	</MiningBuildTask>
	<DataDictionary>
		<DataField name="label" optype="categorical" dataType="double">
			<Value value="0.0"/>
			<Value value="1.0"/>
		</DataField>
		<DataField name="lemma" optype="categorical" dataType="string"/>
	</DataDictionary>
	<TransformationDictionary>
		<DefineFunction name="tf(lowercase(lemma))" optype="continuous" dataType="integer">
			<ParameterField name="document"/>
			<ParameterField name="term"/>
			<TextIndex textField="document" x-wordRE="(?u)\b\w\w+\b">
				<FieldRef field="term"/>
			</TextIndex>
		</DefineFunction>
	</TransformationDictionary>
	<RegressionModel functionName="classification" algorithmName="sklearn.svm._classes.LinearSVC" normalizationMethod="logit">
		<MiningSchema>
			<MiningField name="label" usageType="target"/>
			<MiningField name="lemma"/>
		</MiningSchema>
		<LocalTransformations>
			<DerivedField name="lowercase(lemma)" optype="categorical" dataType="string">
				<Apply function="lowercase">
					<FieldRef field="lemma"/>
				</Apply>
			</DerivedField>
			<DerivedField name="tf(lowercase(lemma), 003)" optype="continuous" dataType="integer">
				<Apply function="tf(lowercase(lemma))">
					<FieldRef field="lowercase(lemma)"/>
					<Constant dataType="string">003</Constant>
				</Apply>
			</DerivedField>
			<DerivedField name="tf(lowercase(lemma), 004)" optype="continuous" dataType="integer">
				<Apply function="tf(lowercase(lemma))">
					<FieldRef field="lowercase(lemma)"/>
					<Constant dataType="string">004</Constant>
				</Apply>
			</DerivedField>
			<DerivedField name="tf(lowercase(lemma), 005)" optype="continuous" dataType="integer">
				<Apply function="tf(lowercase(lemma))">
					<FieldRef field="lowercase(lemma)"/>
					<Constant dataType="string">005</Constant>
				</Apply>
			</DerivedField>
			<DerivedField name="tf(lowercase(lemma), 007)" optype="continuous" dataType="integer">
				<Apply function="tf(lowercase(lemma))">
					<FieldRef field="lowercase(lemma)"/>
					<Constant dataType="string">007</Constant>
				</Apply>
			</DerivedField>
			<DerivedField name="tf(lowercase(lemma), 0155)" optype="continuous" dataType="integer">
				<Apply function="tf(lowercase(lemma))">
					<FieldRef field="lowercase(lemma)"/>
					<Constant dataType="string">0155</Constant>
				</Apply>
			</DerivedField>
			<DerivedField name="tf(lowercase(lemma), 04)" optype="continuous" dataType="integer">
				<Apply function="tf(lowercase(lemma))">
					<FieldRef field="lowercase(lemma)"/>
					<Constant dataType="string">04</Constant>
				</Apply>
			</DerivedField>
			<DerivedField name="tf(lowercase(lemma), 1021)" optype="continuous" dataType="integer">
				<Apply function="tf(lowercase(lemma))">
					<FieldRef field="lowercase(lemma)"/>
					<Constant dataType="string">1021</Constant>
				</Apply>
			</DerivedField>
			<DerivedField name="tf(lowercase(lemma), 11)" optype="continuous" dataType="integer">
				<Apply function="tf(lowercase(lemma))">
					<FieldRef field="lowercase(lemma)"/>
					<Constant dataType="string">11</Constant>
				</Apply>
			</DerivedField>
			<DerivedField name="tf(lowercase(lemma), 111)" optype="continuous" dataType="integer">
				<Apply function="tf(lowercase(lemma))">
					<FieldRef field="lowercase(lemma)"/>
					<Constant dataType="string">111</Constant>
				</Apply>
			</DerivedField>
			<DerivedField name="tf(lowercase(lemma), 112)" optype="continuous" dataType="integer">
				<Apply function="tf(lowercase(lemma))">
					<FieldRef field="lowercase(lemma)"/>
					<Constant dataType="string">112</Constant>
				</Apply>
			</DerivedField>
			<DerivedField name="tf(lowercase(lemma), 130kw)" optype="continuous" dataType="integer">
				<Apply function="tf(lowercase(lemma))">
					<FieldRef field="lowercase(lemma)"/>
					<Constant dataType="string">130kw</Constant>
				</Apply>
			</DerivedField>
			<DerivedField name="tf(lowercase(lemma), 1628)" optype="continuous" dataType="integer">
				<Apply function="tf(lowercase(lemma))">
					<FieldRef field="lowercase(lemma)"/>
					<Constant dataType="string">1628</Constant>
				</Apply>
			</DerivedField>
			<DerivedField name="tf(lowercase(lemma), 18)" optype="continuous" dataType="integer">
				<Apply function="tf(lowercase(lemma))">
					<FieldRef field="lowercase(lemma)"/>
					<Constant dataType="string">18</Constant>
				</Apply>
			</DerivedField>
			<DerivedField name="tf(lowercase(lemma), 19)" optype="continuous" dataType="integer">
				<Apply function="tf(lowercase(lemma))">
					<FieldRef field="lowercase(lemma)"/>
					<Constant dataType="string">19</Constant>
				</Apply>
			</DerivedField>
			<DerivedField name="tf(lowercase(lemma), 1980)" optype="continuous" dataType="integer">
				<Apply function="tf(lowercase(lemma))">
					<FieldRef field="lowercase(lemma)"/>
					<Constant dataType="string">1980</Constant>
				</Apply>
			</DerivedField>
			<DerivedField name="tf(lowercase(lemma), 1992)" optype="continuous" dataType="integer">
				<Apply function="tf(lowercase(lemma))">
					<FieldRef field="lowercase(lemma)"/>
					<Constant dataType="string">1992</Constant>
				</Apply>
			</DerivedField>
			<DerivedField name="tf(lowercase(lemma), 2016)" optype="continuous" dataType="integer">
				<Apply function="tf(lowercase(lemma))">
					<FieldRef field="lowercase(lemma)"/>
					<Constant dataType="string">2016</Constant>
				</Apply>
			</DerivedField>
			<DerivedField name="tf(lowercase(lemma), 2017)" optype="continuous" dataType="integer">
				<Apply function="tf(lowercase(lemma))">
					<FieldRef field="lowercase(lemma)"/>
					<Constant dataType="string">2017</Constant>
				</Apply>
			</DerivedField>
			<DerivedField name="tf(lowercase(lemma), 2018)" optype="continuous" dataType="integer">
				<Apply function="tf(lowercase(lemma))">
					<FieldRef field="lowercase(lemma)"/>
					<Constant dataType="string">2018</Constant>
				</Apply>
			</DerivedField>
			<DerivedField name="tf(lowercase(lemma), 2019)" optype="continuous" dataType="integer">
				<Apply function="tf(lowercase(lemma))">
					<FieldRef field="lowercase(lemma)"/>
					<Constant dataType="string">2019</Constant>
				</Apply>
			</DerivedField>
			<DerivedField name="tf(lowercase(lemma), 2020)" optype="continuous" dataType="integer">
				<Apply function="tf(lowercase(lemma))">
					<FieldRef field="lowercase(lemma)"/>
					<Constant dataType="string">2020</Constant>
				</Apply>
			</DerivedField>
			<DerivedField name="tf(lowercase(lemma), 2021)" optype="continuous" dataType="integer">
				<Apply function="tf(lowercase(lemma))">
					<FieldRef field="lowercase(lemma)"/>
					<Constant dataType="string">2021</Constant>
				</Apply>
			</DerivedField>
			<DerivedField name="tf(lowercase(lemma), 2022)" optype="continuous" dataType="integer">
				<Apply function="tf(lowercase(lemma))">
					<FieldRef field="lowercase(lemma)"/>
					<Constant dataType="string">2022</Constant>
				</Apply>
			</DerivedField>
			<DerivedField name="tf(lowercase(lemma), 2023)" optype="continuous" dataType="integer">
				<Apply function="tf(lowercase(lemma))">
					<FieldRef field="lowercase(lemma)"/>
					<Constant dataType="string">2023</Constant>
				</Apply>
			</DerivedField>
			<DerivedField name="tf(lowercase(lemma), 2027)" optype="continuous" dataType="integer">
				<Apply function="tf(lowercase(lemma))">
					<FieldRef field="lowercase(lemma)"/>
					<Constant dataType="string">2027</Constant>
				</Apply>
			</DerivedField>
			<DerivedField name="tf(lowercase(lemma), 2030)" optype="continuous" dataType="integer">
				<Apply function="tf(lowercase(lemma))">
					<FieldRef field="lowercase(lemma)"/>
					<Constant dataType="string">2030</Constant>
				</Apply>
			</DerivedField>
			<DerivedField name="tf(lowercase(lemma), 2092)" optype="continuous" dataType="integer">
				<Apply function="tf(lowercase(lemma))">
					<FieldRef field="lowercase(lemma)"/>
					<Constant dataType="string">2092</Constant>
				</Apply>
			</DerivedField>
			<DerivedField name="tf(lowercase(lemma), 25th)" optype="continuous" dataType="integer">
				<Apply function="tf(lowercase(lemma))">
					<FieldRef field="lowercase(lemma)"/>
					<Constant dataType="string">25th</Constant>
				</Apply>
			</DerivedField>
			<DerivedField name="tf(lowercase(lemma), 300kw)" optype="continuous" dataType="integer">
				<Apply function="tf(lowercase(lemma))">
					<FieldRef field="lowercase(lemma)"/>
					<Constant dataType="string">300kw</Constant>
				</Apply>
			</DerivedField>
			<DerivedField name="tf(lowercase(lemma), 311)" optype="continuous" dataType="integer">
				<Apply function="tf(lowercase(lemma))">
					<FieldRef field="lowercase(lemma)"/>
					<Constant dataType="string">311</Constant>
				</Apply>
			</DerivedField>
			<DerivedField name="tf(lowercase(lemma), 40)" optype="continuous" dataType="integer">
				<Apply function="tf(lowercase(lemma))">
					<FieldRef field="lowercase(lemma)"/>
					<Constant dataType="string">40</Constant>
				</Apply>
			</DerivedField>
			<DerivedField name="tf(lowercase(lemma), 43)" optype="continuous" dataType="integer">
				<Apply function="tf(lowercase(lemma))">
					<FieldRef field="lowercase(lemma)"/>
					<Constant dataType="string">43</Constant>
				</Apply>
			</DerivedField>
			<DerivedField name="tf(lowercase(lemma), 50)" optype="continuous" dataType="integer">
				<Apply function="tf(lowercase(lemma))">
					<FieldRef field="lowercase(lemma)"/>
					<Constant dataType="string">50</Constant>
				</Apply>
			</DerivedField>
			<DerivedField name="tf(lowercase(lemma), 56kw)" optype="continuous" dataType="integer">
				<Apply function="tf(lowercase(lemma))">
					<FieldRef field="lowercase(lemma)"/>
					<Constant dataType="string">56kw</Constant>
				</Apply>
			</DerivedField>
			<DerivedField name="tf(lowercase(lemma), 5th)" optype="continuous" dataType="integer">
				<Apply function="tf(lowercase(lemma))">
					<FieldRef field="lowercase(lemma)"/>
					<Constant dataType="string">5th</Constant>
				</Apply>
			</DerivedField>
			<DerivedField name="tf(lowercase(lemma), 612)" optype="continuous" dataType="integer">
				<Apply function="tf(lowercase(lemma))">
					<FieldRef field="lowercase(lemma)"/>
					<Constant dataType="string">612</Constant>
				</Apply>
			</DerivedField>
			<DerivedField name="tf(lowercase(lemma), 73496)" optype="continuous" dataType="integer">
				<Apply function="tf(lowercase(lemma))">
					<FieldRef field="lowercase(lemma)"/>
					<Constant dataType="string">73496</Constant>
				</Apply>
			</DerivedField>
			<DerivedField name="tf(lowercase(lemma), 81419)" optype="continuous" dataType="integer">
				<Apply function="tf(lowercase(lemma))">
					<FieldRef field="lowercase(lemma)"/>
					<Constant dataType="string">81419</Constant>
				</Apply>
			</DerivedField>
			<DerivedField name="tf(lowercase(lemma), 87769)" optype="continuous" dataType="integer">
				<Apply function="tf(lowercase(lemma))">
					<FieldRef field="lowercase(lemma)"/>
					<Constant dataType="string">87769</Constant>
				</Apply>
			</DerivedField>
			<DerivedField name="tf(lowercase(lemma), 89788)" optype="continuous" dataType="integer">
				<Apply function="tf(lowercase(lemma))">
					<FieldRef field="lowercase(lemma)"/>
					<Constant dataType="string">89788</Constant>
				</Apply>
			</DerivedField>
			<DerivedField name="tf(lowercase(lemma), 8th)" optype="continuous" dataType="integer">
				<Apply function="tf(lowercase(lemma))">
					<FieldRef field="lowercase(lemma)"/>
					<Constant dataType="string">8th</Constant>
				</Apply>
			</DerivedField>
			<DerivedField name="tf(lowercase(lemma), 98)" optype="continuous" dataType="integer">
				<Apply function="tf(lowercase(lemma))">
					<FieldRef field="lowercase(lemma)"/>
					<Constant dataType="string">98</Constant>
				</Apply>
			</DerivedField>
			<DerivedField name="tf(lowercase(lemma), abduction)" optype="continuous" dataType="integer">
				<Apply function="tf(lowercase(lemma))">
					<FieldRef field="lowercase(lemma)"/>
					<Constant dataType="string">abduction</Constant>
				</Apply>
			</DerivedField>
			<DerivedField name="tf(lowercase(lemma), abdullah)" optype="continuous" dataType="integer">
				<Apply function="tf(lowercase(lemma))">
					<FieldRef field="lowercase(lemma)"/>
					<Constant dataType="string">abdullah</Constant>
				</Apply>
			</DerivedField>
			<DerivedField name="tf(lowercase(lemma), abortion)" optype="continuous" dataType="integer">
				<Apply function="tf(lowercase(lemma))">
					<FieldRef field="lowercase(lemma)"/>
					<Constant dataType="string">abortion</Constant>
				</Apply>
			</DerivedField>
			<DerivedField name="tf(lowercase(lemma), accelerate)" optype="continuous" dataType="integer">
				<Apply function="tf(lowercase(lemma))">
					<FieldRef field="lowercase(lemma)"/>
					<Constant dataType="string">accelerate</Constant>
				</Apply>
			</DerivedField>
			<DerivedField name="tf(lowercase(lemma), access)" optype="continuous" dataType="integer">
				<Apply function="tf(lowercase(lemma))">
					<FieldRef field="lowercase(lemma)"/>
					<Constant dataType="string">access</Constant>
				</Apply>
			</DerivedField>
			<DerivedField name="tf(lowercase(lemma), accessibility)" optype="continuous" dataType="integer">
				<Apply function="tf(lowercase(lemma))">
					<FieldRef field="lowercase(lemma)"/>
					<Constant dataType="string">accessibility</Constant>
				</Apply>
			</DerivedField>
			<DerivedField name="tf(lowercase(lemma), accession)" optype="continuous" dataType="integer">
				<Apply function="tf(lowercase(lemma))">
					<FieldRef field="lowercase(lemma)"/>
					<Constant dataType="string">accession</Constant>
				</Apply>
			</DerivedField>
			<DerivedField name="tf(lowercase(lemma), account)" optype="continuous" dataType="integer">
				<Apply function="tf(lowercase(lemma))">
					<FieldRef field="lowercase(lemma)"/>
					<Constant dataType="string">account</Constant>
				</Apply>
			</DerivedField>
			<DerivedField name="tf(lowercase(lemma), accountability)" optype="continuous" dataType="integer">
				<Apply function="tf(lowercase(lemma))">
					<FieldRef field="lowercase(lemma)"/>
					<Constant dataType="string">accountability</Constant>
				</Apply>
			</DerivedField>
			<DerivedField name="tf(lowercase(lemma), accrue)" optype="continuous" dataType="integer">
				<Apply function="tf(lowercase(lemma))">
					<FieldRef field="lowercase(lemma)"/>
					<Constant dataType="string">accrue</Constant>
				</Apply>
			</DerivedField>
			<DerivedField name="tf(lowercase(lemma), achievement)" optype="continuous" dataType="integer">
				<Apply function="tf(lowercase(lemma))">
					<FieldRef field="lowercase(lemma)"/>
					<Constant dataType="string">achievement</Constant>
				</Apply>
			</DerivedField>
			<DerivedField name="tf(lowercase(lemma), acquisition)" optype="continuous" dataType="integer">
				<Apply function="tf(lowercase(lemma))">
					<FieldRef field="lowercase(lemma)"/>
					<Constant dataType="string">acquisition</Constant>
				</Apply>
			</DerivedField>
			<DerivedField name="tf(lowercase(lemma), across)" optype="continuous" dataType="integer">
				<Apply function="tf(lowercase(lemma))">
					<FieldRef field="lowercase(lemma)"/>
					<Constant dataType="string">across</Constant>
				</Apply>
			</DerivedField>
			<DerivedField name="tf(lowercase(lemma), act)" optype="continuous" dataType="integer">
				<Apply function="tf(lowercase(lemma))">
					<FieldRef field="lowercase(lemma)"/>
					<Constant dataType="string">act</Constant>
				</Apply>
			</DerivedField>
			<DerivedField name="tf(lowercase(lemma), action)" optype="continuous" dataType="integer">
				<Apply function="tf(lowercase(lemma))">
					<FieldRef field="lowercase(lemma)"/>
					<Constant dataType="string">action</Constant>
				</Apply>
			</DerivedField>
			<DerivedField name="tf(lowercase(lemma), active)" optype="continuous" dataType="integer">
				<Apply function="tf(lowercase(lemma))">
					<FieldRef field="lowercase(lemma)"/>
					<Constant dataType="string">active</Constant>
				</Apply>
			</DerivedField>
			<DerivedField name="tf(lowercase(lemma), activity)" optype="continuous" dataType="integer">
				<Apply function="tf(lowercase(lemma))">
					<FieldRef field="lowercase(lemma)"/>
					<Constant dataType="string">activity</Constant>
				</Apply>
			</DerivedField>
			<DerivedField name="tf(lowercase(lemma), add)" optype="continuous" dataType="integer">
				<Apply function="tf(lowercase(lemma))">
					<FieldRef field="lowercase(lemma)"/>
					<Constant dataType="string">add</Constant>
				</Apply>
			</DerivedField>
			<DerivedField name="tf(lowercase(lemma), addiction)" optype="continuous" dataType="integer">
				<Apply function="tf(lowercase(lemma))">
					<FieldRef field="lowercase(lemma)"/>
					<Constant dataType="string">addiction</Constant>
				</Apply>
			</DerivedField>
			<DerivedField name="tf(lowercase(lemma), additional)" optype="continuous" dataType="integer">
				<Apply function="tf(lowercase(lemma))">
					<FieldRef field="lowercase(lemma)"/>
					<Constant dataType="string">additional</Constant>
				</Apply>
			</DerivedField>
			<DerivedField name="tf(lowercase(lemma), address)" optype="continuous" dataType="integer">
				<Apply function="tf(lowercase(lemma))">
					<FieldRef field="lowercase(lemma)"/>
					<Constant dataType="string">address</Constant>
				</Apply>
			</DerivedField>
			<DerivedField name="tf(lowercase(lemma), adequate)" optype="continuous" dataType="integer">
				<Apply function="tf(lowercase(lemma))">
					<FieldRef field="lowercase(lemma)"/>
					<Constant dataType="string">adequate</Constant>
				</Apply>
			</DerivedField>
			<DerivedField name="tf(lowercase(lemma), adjustment)" optype="continuous" dataType="integer">
				<Apply function="tf(lowercase(lemma))">
					<FieldRef field="lowercase(lemma)"/>
					<Constant dataType="string">adjustment</Constant>
				</Apply>
			</DerivedField>
			<DerivedField name="tf(lowercase(lemma), administrative)" optype="continuous" dataType="integer">
				<Apply function="tf(lowercase(lemma))">
					<FieldRef field="lowercase(lemma)"/>
					<Constant dataType="string">administrative</Constant>
				</Apply>
			</DerivedField>
			<DerivedField name="tf(lowercase(lemma), adopt)" optype="continuous" dataType="integer">
				<Apply function="tf(lowercase(lemma))">
					<FieldRef field="lowercase(lemma)"/>
					<Constant dataType="string">adopt</Constant>
				</Apply>
			</DerivedField>
			<DerivedField name="tf(lowercase(lemma), adoption)" optype="continuous" dataType="integer">
				<Apply function="tf(lowercase(lemma))">
					<FieldRef field="lowercase(lemma)"/>
					<Constant dataType="string">adoption</Constant>
				</Apply>
			</DerivedField>
			<DerivedField name="tf(lowercase(lemma), aez)" optype="continuous" dataType="integer">
				<Apply function="tf(lowercase(lemma))">
					<FieldRef field="lowercase(lemma)"/>
					<Constant dataType="string">aez</Constant>
				</Apply>
			</DerivedField>
			<DerivedField name="tf(lowercase(lemma), affordability)" optype="continuous" dataType="integer">
				<Apply function="tf(lowercase(lemma))">
					<FieldRef field="lowercase(lemma)"/>
					<Constant dataType="string">affordability</Constant>
				</Apply>
			</DerivedField>
			<DerivedField name="tf(lowercase(lemma), afghanistan)" optype="continuous" dataType="integer">
				<Apply function="tf(lowercase(lemma))">
					<FieldRef field="lowercase(lemma)"/>
					<Constant dataType="string">afghanistan</Constant>
				</Apply>
			</DerivedField>
			<DerivedField name="tf(lowercase(lemma), africa)" optype="continuous" dataType="integer">
				<Apply function="tf(lowercase(lemma))">
					<FieldRef field="lowercase(lemma)"/>
					<Constant dataType="string">africa</Constant>
				</Apply>
			</DerivedField>
			<DerivedField name="tf(lowercase(lemma), african)" optype="continuous" dataType="integer">
				<Apply function="tf(lowercase(lemma))">
					<FieldRef field="lowercase(lemma)"/>
					<Constant dataType="string">african</Constant>
				</Apply>
			</DerivedField>
			<DerivedField name="tf(lowercase(lemma), aftermath)" optype="continuous" dataType="integer">
				<Apply function="tf(lowercase(lemma))">
					<FieldRef field="lowercase(lemma)"/>
					<Constant dataType="string">aftermath</Constant>
				</Apply>
			</DerivedField>
			<DerivedField name="tf(lowercase(lemma), age)" optype="continuous" dataType="integer">
				<Apply function="tf(lowercase(lemma))">
					<FieldRef field="lowercase(lemma)"/>
					<Constant dataType="string">age</Constant>
				</Apply>
			</DerivedField>
			<DerivedField name="tf(lowercase(lemma), agency)" optype="continuous" dataType="integer">
				<Apply function="tf(lowercase(lemma))">
					<FieldRef field="lowercase(lemma)"/>
					<Constant dataType="string">agency</Constant>
				</Apply>
			</DerivedField>
			<DerivedField name="tf(lowercase(lemma), agenda)" optype="continuous" dataType="integer">
				<Apply function="tf(lowercase(lemma))">
					<FieldRef field="lowercase(lemma)"/>
					<Constant dataType="string">agenda</Constant>
				</Apply>
			</DerivedField>
			<DerivedField name="tf(lowercase(lemma), aggression)" optype="continuous" dataType="integer">
				<Apply function="tf(lowercase(lemma))">
					<FieldRef field="lowercase(lemma)"/>
					<Constant dataType="string">aggression</Constant>
				</Apply>
			</DerivedField>
			<DerivedField name="tf(lowercase(lemma), agreement)" optype="continuous" dataType="integer">
				<Apply function="tf(lowercase(lemma))">
					<FieldRef field="lowercase(lemma)"/>
					<Constant dataType="string">agreement</Constant>
				</Apply>
			</DerivedField>
			<DerivedField name="tf(lowercase(lemma), agricultural)" optype="continuous" dataType="integer">
				<Apply function="tf(lowercase(lemma))">
					<FieldRef field="lowercase(lemma)"/>
					<Constant dataType="string">agricultural</Constant>
				</Apply>
			</DerivedField>
			<DerivedField name="tf(lowercase(lemma), agriculture)" optype="continuous" dataType="integer">
				<Apply function="tf(lowercase(lemma))">
					<FieldRef field="lowercase(lemma)"/>
					<Constant dataType="string">agriculture</Constant>
				</Apply>
			</DerivedField>
			<DerivedField name="tf(lowercase(lemma), ahmadreza)" optype="continuous" dataType="integer">
				<Apply function="tf(lowercase(lemma))">
					<FieldRef field="lowercase(lemma)"/>
					<Constant dataType="string">ahmadreza</Constant>
				</Apply>
			</DerivedField>
			<DerivedField name="tf(lowercase(lemma), ahmed)" optype="continuous" dataType="integer">
				<Apply function="tf(lowercase(lemma))">
					<FieldRef field="lowercase(lemma)"/>
					<Constant dataType="string">ahmed</Constant>
				</Apply>
			</DerivedField>
			<DerivedField name="tf(lowercase(lemma), ai)" optype="continuous" dataType="integer">
				<Apply function="tf(lowercase(lemma))">
					<FieldRef field="lowercase(lemma)"/>
					<Constant dataType="string">ai</Constant>
				</Apply>
			</DerivedField>
			<DerivedField name="tf(lowercase(lemma), aids)" optype="continuous" dataType="integer">
				<Apply function="tf(lowercase(lemma))">
					<FieldRef field="lowercase(lemma)"/>
					<Constant dataType="string">aids</Constant>
				</Apply>
			</DerivedField>
			<DerivedField name="tf(lowercase(lemma), air)" optype="continuous" dataType="integer">
				<Apply function="tf(lowercase(lemma))">
					<FieldRef field="lowercase(lemma)"/>
					<Constant dataType="string">air</Constant>
				</Apply>
			</DerivedField>
			<DerivedField name="tf(lowercase(lemma), al)" optype="continuous" dataType="integer">
				<Apply function="tf(lowercase(lemma))">
					<FieldRef field="lowercase(lemma)"/>
					<Constant dataType="string">al</Constant>
				</Apply>
			</DerivedField>
			<DerivedField name="tf(lowercase(lemma), albania)" optype="continuous" dataType="integer">
				<Apply function="tf(lowercase(lemma))">
					<FieldRef field="lowercase(lemma)"/>
					<Constant dataType="string">albania</Constant>
				</Apply>
			</DerivedField>
			<DerivedField name="tf(lowercase(lemma), alert)" optype="continuous" dataType="integer">
				<Apply function="tf(lowercase(lemma))">
					<FieldRef field="lowercase(lemma)"/>
					<Constant dataType="string">alert</Constant>
				</Apply>
			</DerivedField>
			<DerivedField name="tf(lowercase(lemma), alignment)" optype="continuous" dataType="integer">
				<Apply function="tf(lowercase(lemma))">
					<FieldRef field="lowercase(lemma)"/>
					<Constant dataType="string">alignment</Constant>
				</Apply>
			</DerivedField>
			<DerivedField name="tf(lowercase(lemma), allemagne)" optype="continuous" dataType="integer">
				<Apply function="tf(lowercase(lemma))">
					<FieldRef field="lowercase(lemma)"/>
					<Constant dataType="string">allemagne</Constant>
				</Apply>
			</DerivedField>
			<DerivedField name="tf(lowercase(lemma), ambassador)" optype="continuous" dataType="integer">
				<Apply function="tf(lowercase(lemma))">
					<FieldRef field="lowercase(lemma)"/>
					<Constant dataType="string">ambassador</Constant>
				</Apply>
			</DerivedField>
			<DerivedField name="tf(lowercase(lemma), ambient)" optype="continuous" dataType="integer">
				<Apply function="tf(lowercase(lemma))">
					<FieldRef field="lowercase(lemma)"/>
					<Constant dataType="string">ambient</Constant>
				</Apply>
			</DerivedField>
			<DerivedField name="tf(lowercase(lemma), amend)" optype="continuous" dataType="integer">
				<Apply function="tf(lowercase(lemma))">
					<FieldRef field="lowercase(lemma)"/>
					<Constant dataType="string">amend</Constant>
				</Apply>
			</DerivedField>
			<DerivedField name="tf(lowercase(lemma), amendment)" optype="continuous" dataType="integer">
				<Apply function="tf(lowercase(lemma))">
					<FieldRef field="lowercase(lemma)"/>
					<Constant dataType="string">amendment</Constant>
				</Apply>
			</DerivedField>
			<DerivedField name="tf(lowercase(lemma), america)" optype="continuous" dataType="integer">
				<Apply function="tf(lowercase(lemma))">
					<FieldRef field="lowercase(lemma)"/>
					<Constant dataType="string">america</Constant>
				</Apply>
			</DerivedField>
			<DerivedField name="tf(lowercase(lemma), american)" optype="continuous" dataType="integer">
				<Apply function="tf(lowercase(lemma))">
					<FieldRef field="lowercase(lemma)"/>
					<Constant dataType="string">american</Constant>
				</Apply>
			</DerivedField>
			<DerivedField name="tf(lowercase(lemma), analyse)" optype="continuous" dataType="integer">
				<Apply function="tf(lowercase(lemma))">
					<FieldRef field="lowercase(lemma)"/>
					<Constant dataType="string">analyse</Constant>
				</Apply>
			</DerivedField>
			<DerivedField name="tf(lowercase(lemma), andrei)" optype="continuous" dataType="integer">
				<Apply function="tf(lowercase(lemma))">
					<FieldRef field="lowercase(lemma)"/>
					<Constant dataType="string">andrei</Constant>
				</Apply>
			</DerivedField>
			<DerivedField name="tf(lowercase(lemma), animal)" optype="continuous" dataType="integer">
				<Apply function="tf(lowercase(lemma))">
					<FieldRef field="lowercase(lemma)"/>
					<Constant dataType="string">animal</Constant>
				</Apply>
			</DerivedField>
			<DerivedField name="tf(lowercase(lemma), annex)" optype="continuous" dataType="integer">
				<Apply function="tf(lowercase(lemma))">
					<FieldRef field="lowercase(lemma)"/>
					<Constant dataType="string">annex</Constant>
				</Apply>
			</DerivedField>
			<DerivedField name="tf(lowercase(lemma), annexes)" optype="continuous" dataType="integer">
				<Apply function="tf(lowercase(lemma))">
					<FieldRef field="lowercase(lemma)"/>
					<Constant dataType="string">annexes</Constant>
				</Apply>
			</DerivedField>
			<DerivedField name="tf(lowercase(lemma), anniversary)" optype="continuous" dataType="integer">
				<Apply function="tf(lowercase(lemma))">
					<FieldRef field="lowercase(lemma)"/>
					<Constant dataType="string">anniversary</Constant>
				</Apply>
			</DerivedField>
			<DerivedField name="tf(lowercase(lemma), annual)" optype="continuous" dataType="integer">
				<Apply function="tf(lowercase(lemma))">
					<FieldRef field="lowercase(lemma)"/>
					<Constant dataType="string">annual</Constant>
				</Apply>
			</DerivedField>
			<DerivedField name="tf(lowercase(lemma), annuel)" optype="continuous" dataType="integer">
				<Apply function="tf(lowercase(lemma))">
					<FieldRef field="lowercase(lemma)"/>
					<Constant dataType="string">annuel</Constant>
				</Apply>
			</DerivedField>
			<DerivedField name="tf(lowercase(lemma), antarctic)" optype="continuous" dataType="integer">
				<Apply function="tf(lowercase(lemma))">
					<FieldRef field="lowercase(lemma)"/>
					<Constant dataType="string">antarctic</Constant>
				</Apply>
			</DerivedField>
			<DerivedField name="tf(lowercase(lemma), anti)" optype="continuous" dataType="integer">
				<Apply function="tf(lowercase(lemma))">
					<FieldRef field="lowercase(lemma)"/>
					<Constant dataType="string">anti</Constant>
				</Apply>
			</DerivedField>
			<DerivedField name="tf(lowercase(lemma), antimicrobial)" optype="continuous" dataType="integer">
				<Apply function="tf(lowercase(lemma))">
					<FieldRef field="lowercase(lemma)"/>
					<Constant dataType="string">antimicrobial</Constant>
				</Apply>
			</DerivedField>
			<DerivedField name="tf(lowercase(lemma), apple)" optype="continuous" dataType="integer">
				<Apply function="tf(lowercase(lemma))">
					<FieldRef field="lowercase(lemma)"/>
					<Constant dataType="string">apple</Constant>
				</Apply>
			</DerivedField>
			<DerivedField name="tf(lowercase(lemma), applicable)" optype="continuous" dataType="integer">
				<Apply function="tf(lowercase(lemma))">
					<FieldRef field="lowercase(lemma)"/>
					<Constant dataType="string">applicable</Constant>
				</Apply>
			</DerivedField>
			<DerivedField name="tf(lowercase(lemma), application)" optype="continuous" dataType="integer">
				<Apply function="tf(lowercase(lemma))">
					<FieldRef field="lowercase(lemma)"/>
					<Constant dataType="string">application</Constant>
				</Apply>
			</DerivedField>
			<DerivedField name="tf(lowercase(lemma), apply)" optype="continuous" dataType="integer">
				<Apply function="tf(lowercase(lemma))">
					<FieldRef field="lowercase(lemma)"/>
					<Constant dataType="string">apply</Constant>
				</Apply>
			</DerivedField>
			<DerivedField name="tf(lowercase(lemma), approach)" optype="continuous" dataType="integer">
				<Apply function="tf(lowercase(lemma))">
					<FieldRef field="lowercase(lemma)"/>
					<Constant dataType="string">approach</Constant>
				</Apply>
			</DerivedField>
			<DerivedField name="tf(lowercase(lemma), aquaculture)" optype="continuous" dataType="integer">
				<Apply function="tf(lowercase(lemma))">
					<FieldRef field="lowercase(lemma)"/>
					<Constant dataType="string">aquaculture</Constant>
				</Apply>
			</DerivedField>
			<DerivedField name="tf(lowercase(lemma), arabia)" optype="continuous" dataType="integer">
				<Apply function="tf(lowercase(lemma))">
					<FieldRef field="lowercase(lemma)"/>
					<Constant dataType="string">arabia</Constant>
				</Apply>
			</DerivedField>
			<DerivedField name="tf(lowercase(lemma), archivierung)" optype="continuous" dataType="integer">
				<Apply function="tf(lowercase(lemma))">
					<FieldRef field="lowercase(lemma)"/>
					<Constant dataType="string">archivierung</Constant>
				</Apply>
			</DerivedField>
			<DerivedField name="tf(lowercase(lemma), arctic)" optype="continuous" dataType="integer">
				<Apply function="tf(lowercase(lemma))">
					<FieldRef field="lowercase(lemma)"/>
					<Constant dataType="string">arctic</Constant>
				</Apply>
			</DerivedField>
			<DerivedField name="tf(lowercase(lemma), area)" optype="continuous" dataType="integer">
				<Apply function="tf(lowercase(lemma))">
					<FieldRef field="lowercase(lemma)"/>
					<Constant dataType="string">area</Constant>
				</Apply>
			</DerivedField>
			<DerivedField name="tf(lowercase(lemma), areas)" optype="continuous" dataType="integer">
				<Apply function="tf(lowercase(lemma))">
					<FieldRef field="lowercase(lemma)"/>
					<Constant dataType="string">areas</Constant>
				</Apply>
			</DerivedField>
			<DerivedField name="tf(lowercase(lemma), arm)" optype="continuous" dataType="integer">
				<Apply function="tf(lowercase(lemma))">
					<FieldRef field="lowercase(lemma)"/>
					<Constant dataType="string">arm</Constant>
				</Apply>
			</DerivedField>
			<DerivedField name="tf(lowercase(lemma), armenia)" optype="continuous" dataType="integer">
				<Apply function="tf(lowercase(lemma))">
					<FieldRef field="lowercase(lemma)"/>
					<Constant dataType="string">armenia</Constant>
				</Apply>
			</DerivedField>
			<DerivedField name="tf(lowercase(lemma), arrangement)" optype="continuous" dataType="integer">
				<Apply function="tf(lowercase(lemma))">
					<FieldRef field="lowercase(lemma)"/>
					<Constant dataType="string">arrangement</Constant>
				</Apply>
			</DerivedField>
			<DerivedField name="tf(lowercase(lemma), arrest)" optype="continuous" dataType="integer">
				<Apply function="tf(lowercase(lemma))">
					<FieldRef field="lowercase(lemma)"/>
					<Constant dataType="string">arrest</Constant>
				</Apply>
			</DerivedField>
			<DerivedField name="tf(lowercase(lemma), article)" optype="continuous" dataType="integer">
				<Apply function="tf(lowercase(lemma))">
					<FieldRef field="lowercase(lemma)"/>
					<Constant dataType="string">article</Constant>
				</Apply>
			</DerivedField>
			<DerivedField name="tf(lowercase(lemma), artificial)" optype="continuous" dataType="integer">
				<Apply function="tf(lowercase(lemma))">
					<FieldRef field="lowercase(lemma)"/>
					<Constant dataType="string">artificial</Constant>
				</Apply>
			</DerivedField>
			<DerivedField name="tf(lowercase(lemma), asbestos)" optype="continuous" dataType="integer">
				<Apply function="tf(lowercase(lemma))">
					<FieldRef field="lowercase(lemma)"/>
					<Constant dataType="string">asbestos</Constant>
				</Apply>
			</DerivedField>
			<DerivedField name="tf(lowercase(lemma), asian)" optype="continuous" dataType="integer">
				<Apply function="tf(lowercase(lemma))">
					<FieldRef field="lowercase(lemma)"/>
					<Constant dataType="string">asian</Constant>
				</Apply>
			</DerivedField>
			<DerivedField name="tf(lowercase(lemma), aspect)" optype="continuous" dataType="integer">
				<Apply function="tf(lowercase(lemma))">
					<FieldRef field="lowercase(lemma)"/>
					<Constant dataType="string">aspect</Constant>
				</Apply>
			</DerivedField>
			<DerivedField name="tf(lowercase(lemma), aspects)" optype="continuous" dataType="integer">
				<Apply function="tf(lowercase(lemma))">
					<FieldRef field="lowercase(lemma)"/>
					<Constant dataType="string">aspects</Constant>
				</Apply>
			</DerivedField>
			<DerivedField name="tf(lowercase(lemma), assassination)" optype="continuous" dataType="integer">
				<Apply function="tf(lowercase(lemma))">
					<FieldRef field="lowercase(lemma)"/>
					<Constant dataType="string">assassination</Constant>
				</Apply>
			</DerivedField>
			<DerivedField name="tf(lowercase(lemma), assessment)" optype="continuous" dataType="integer">
				<Apply function="tf(lowercase(lemma))">
					<FieldRef field="lowercase(lemma)"/>
					<Constant dataType="string">assessment</Constant>
				</Apply>
			</DerivedField>
			<DerivedField name="tf(lowercase(lemma), assistance)" optype="continuous" dataType="integer">
				<Apply function="tf(lowercase(lemma))">
					<FieldRef field="lowercase(lemma)"/>
					<Constant dataType="string">assistance</Constant>
				</Apply>
			</DerivedField>
			<DerivedField name="tf(lowercase(lemma), association)" optype="continuous" dataType="integer">
				<Apply function="tf(lowercase(lemma))">
					<FieldRef field="lowercase(lemma)"/>
					<Constant dataType="string">association</Constant>
				</Apply>
			</DerivedField>
			<DerivedField name="tf(lowercase(lemma), asylum)" optype="continuous" dataType="integer">
				<Apply function="tf(lowercase(lemma))">
					<FieldRef field="lowercase(lemma)"/>
					<Constant dataType="string">asylum</Constant>
				</Apply>
			</DerivedField>
			<DerivedField name="tf(lowercase(lemma), atlantic)" optype="continuous" dataType="integer">
				<Apply function="tf(lowercase(lemma))">
					<FieldRef field="lowercase(lemma)"/>
					<Constant dataType="string">atlantic</Constant>
				</Apply>
			</DerivedField>
			<DerivedField name="tf(lowercase(lemma), attanasio)" optype="continuous" dataType="integer">
				<Apply function="tf(lowercase(lemma))">
					<FieldRef field="lowercase(lemma)"/>
					<Constant dataType="string">attanasio</Constant>
				</Apply>
			</DerivedField>
			<DerivedField name="tf(lowercase(lemma), audiovisual)" optype="continuous" dataType="integer">
				<Apply function="tf(lowercase(lemma))">
					<FieldRef field="lowercase(lemma)"/>
					<Constant dataType="string">audiovisual</Constant>
				</Apply>
			</DerivedField>
			<DerivedField name="tf(lowercase(lemma), audit)" optype="continuous" dataType="integer">
				<Apply function="tf(lowercase(lemma))">
					<FieldRef field="lowercase(lemma)"/>
					<Constant dataType="string">audit</Constant>
				</Apply>
			</DerivedField>
			<DerivedField name="tf(lowercase(lemma), aung)" optype="continuous" dataType="integer">
				<Apply function="tf(lowercase(lemma))">
					<FieldRef field="lowercase(lemma)"/>
					<Constant dataType="string">aung</Constant>
				</Apply>
			</DerivedField>
			<DerivedField name="tf(lowercase(lemma), austria)" optype="continuous" dataType="integer">
				<Apply function="tf(lowercase(lemma))">
					<FieldRef field="lowercase(lemma)"/>
					<Constant dataType="string">austria</Constant>
				</Apply>
			</DerivedField>
			<DerivedField name="tf(lowercase(lemma), authority)" optype="continuous" dataType="integer">
				<Apply function="tf(lowercase(lemma))">
					<FieldRef field="lowercase(lemma)"/>
					<Constant dataType="string">authority</Constant>
				</Apply>
			</DerivedField>
			<DerivedField name="tf(lowercase(lemma), autonomous)" optype="continuous" dataType="integer">
				<Apply function="tf(lowercase(lemma))">
					<FieldRef field="lowercase(lemma)"/>
					<Constant dataType="string">autonomous</Constant>
				</Apply>
			</DerivedField>
			<DerivedField name="tf(lowercase(lemma), available)" optype="continuous" dataType="integer">
				<Apply function="tf(lowercase(lemma))">
					<FieldRef field="lowercase(lemma)"/>
					<Constant dataType="string">available</Constant>
				</Apply>
			</DerivedField>
			<DerivedField name="tf(lowercase(lemma), avenues)" optype="continuous" dataType="integer">
				<Apply function="tf(lowercase(lemma))">
					<FieldRef field="lowercase(lemma)"/>
					<Constant dataType="string">avenues</Constant>
				</Apply>
			</DerivedField>
			<DerivedField name="tf(lowercase(lemma), aviation)" optype="continuous" dataType="integer">
				<Apply function="tf(lowercase(lemma))">
					<FieldRef field="lowercase(lemma)"/>
					<Constant dataType="string">aviation</Constant>
				</Apply>
			</DerivedField>
			<DerivedField name="tf(lowercase(lemma), avoidance)" optype="continuous" dataType="integer">
				<Apply function="tf(lowercase(lemma))">
					<FieldRef field="lowercase(lemma)"/>
					<Constant dataType="string">avoidance</Constant>
				</Apply>
			</DerivedField>
			<DerivedField name="tf(lowercase(lemma), aye)" optype="continuous" dataType="integer">
				<Apply function="tf(lowercase(lemma))">
					<FieldRef field="lowercase(lemma)"/>
					<Constant dataType="string">aye</Constant>
				</Apply>
			</DerivedField>
			<DerivedField name="tf(lowercase(lemma), azerbaijan)" optype="continuous" dataType="integer">
				<Apply function="tf(lowercase(lemma))">
					<FieldRef field="lowercase(lemma)"/>
					<Constant dataType="string">azerbaijan</Constant>
				</Apply>
			</DerivedField>
			<DerivedField name="tf(lowercase(lemma), back)" optype="continuous" dataType="integer">
				<Apply function="tf(lowercase(lemma))">
					<FieldRef field="lowercase(lemma)"/>
					<Constant dataType="string">back</Constant>
				</Apply>
			</DerivedField>
			<DerivedField name="tf(lowercase(lemma), badakhshan)" optype="continuous" dataType="integer">
				<Apply function="tf(lowercase(lemma))">
					<FieldRef field="lowercase(lemma)"/>
					<Constant dataType="string">badakhshan</Constant>
				</Apply>
			</DerivedField>
			<DerivedField name="tf(lowercase(lemma), balkans)" optype="continuous" dataType="integer">
				<Apply function="tf(lowercase(lemma))">
					<FieldRef field="lowercase(lemma)"/>
					<Constant dataType="string">balkans</Constant>
				</Apply>
			</DerivedField>
			<DerivedField name="tf(lowercase(lemma), ban)" optype="continuous" dataType="integer">
				<Apply function="tf(lowercase(lemma))">
					<FieldRef field="lowercase(lemma)"/>
					<Constant dataType="string">ban</Constant>
				</Apply>
			</DerivedField>
			<DerivedField name="tf(lowercase(lemma), bank)" optype="continuous" dataType="integer">
				<Apply function="tf(lowercase(lemma))">
					<FieldRef field="lowercase(lemma)"/>
					<Constant dataType="string">bank</Constant>
				</Apply>
			</DerivedField>
			<DerivedField name="tf(lowercase(lemma), banking)" optype="continuous" dataType="integer">
				<Apply function="tf(lowercase(lemma))">
					<FieldRef field="lowercase(lemma)"/>
					<Constant dataType="string">banking</Constant>
				</Apply>
			</DerivedField>
			<DerivedField name="tf(lowercase(lemma), bas)" optype="continuous" dataType="integer">
				<Apply function="tf(lowercase(lemma))">
					<FieldRef field="lowercase(lemma)"/>
					<Constant dataType="string">bas</Constant>
				</Apply>
			</DerivedField>
			<DerivedField name="tf(lowercase(lemma), base)" optype="continuous" dataType="integer">
				<Apply function="tf(lowercase(lemma))">
					<FieldRef field="lowercase(lemma)"/>
					<Constant dataType="string">base</Constant>
				</Apply>
			</DerivedField>
			<DerivedField name="tf(lowercase(lemma), battery)" optype="continuous" dataType="integer">
				<Apply function="tf(lowercase(lemma))">
					<FieldRef field="lowercase(lemma)"/>
					<Constant dataType="string">battery</Constant>
				</Apply>
			</DerivedField>
			<DerivedField name="tf(lowercase(lemma), bcs)" optype="continuous" dataType="integer">
				<Apply function="tf(lowercase(lemma))">
					<FieldRef field="lowercase(lemma)"/>
					<Constant dataType="string">bcs</Constant>
				</Apply>
			</DerivedField>
			<DerivedField name="tf(lowercase(lemma), belarus)" optype="continuous" dataType="integer">
				<Apply function="tf(lowercase(lemma))">
					<FieldRef field="lowercase(lemma)"/>
					<Constant dataType="string">belarus</Constant>
				</Apply>
			</DerivedField>
			<DerivedField name="tf(lowercase(lemma), belgique)" optype="continuous" dataType="integer">
				<Apply function="tf(lowercase(lemma))">
					<FieldRef field="lowercase(lemma)"/>
					<Constant dataType="string">belgique</Constant>
				</Apply>
			</DerivedField>
			<DerivedField name="tf(lowercase(lemma), belgium)" optype="continuous" dataType="integer">
				<Apply function="tf(lowercase(lemma))">
					<FieldRef field="lowercase(lemma)"/>
					<Constant dataType="string">belgium</Constant>
				</Apply>
			</DerivedField>
			<DerivedField name="tf(lowercase(lemma), berec)" optype="continuous" dataType="integer">
				<Apply function="tf(lowercase(lemma))">
					<FieldRef field="lowercase(lemma)"/>
					<Constant dataType="string">berec</Constant>
				</Apply>
			</DerivedField>
			<DerivedField name="tf(lowercase(lemma), beweismitteln)" optype="continuous" dataType="integer">
				<Apply function="tf(lowercase(lemma))">
					<FieldRef field="lowercase(lemma)"/>
					<Constant dataType="string">beweismitteln</Constant>
				</Apply>
			</DerivedField>
			<DerivedField name="tf(lowercase(lemma), bio)" optype="continuous" dataType="integer">
				<Apply function="tf(lowercase(lemma))">
					<FieldRef field="lowercase(lemma)"/>
					<Constant dataType="string">bio</Constant>
				</Apply>
			</DerivedField>
			<DerivedField name="tf(lowercase(lemma), biodiversity)" optype="continuous" dataType="integer">
				<Apply function="tf(lowercase(lemma))">
					<FieldRef field="lowercase(lemma)"/>
					<Constant dataType="string">biodiversity</Constant>
				</Apply>
			</DerivedField>
			<DerivedField name="tf(lowercase(lemma), bishop)" optype="continuous" dataType="integer">
				<Apply function="tf(lowercase(lemma))">
					<FieldRef field="lowercase(lemma)"/>
					<Constant dataType="string">bishop</Constant>
				</Apply>
			</DerivedField>
			<DerivedField name="tf(lowercase(lemma), black)" optype="continuous" dataType="integer">
				<Apply function="tf(lowercase(lemma))">
					<FieldRef field="lowercase(lemma)"/>
					<Constant dataType="string">black</Constant>
				</Apply>
			</DerivedField>
			<DerivedField name="tf(lowercase(lemma), blasphemy)" optype="continuous" dataType="integer">
				<Apply function="tf(lowercase(lemma))">
					<FieldRef field="lowercase(lemma)"/>
					<Constant dataType="string">blasphemy</Constant>
				</Apply>
			</DerivedField>
			<DerivedField name="tf(lowercase(lemma), blue)" optype="continuous" dataType="integer">
				<Apply function="tf(lowercase(lemma))">
					<FieldRef field="lowercase(lemma)"/>
					<Constant dataType="string">blue</Constant>
				</Apply>
			</DerivedField>
			<DerivedField name="tf(lowercase(lemma), bluefin)" optype="continuous" dataType="integer">
				<Apply function="tf(lowercase(lemma))">
					<FieldRef field="lowercase(lemma)"/>
					<Constant dataType="string">bluefin</Constant>
				</Apply>
			</DerivedField>
			<DerivedField name="tf(lowercase(lemma), bolivia)" optype="continuous" dataType="integer">
				<Apply function="tf(lowercase(lemma))">
					<FieldRef field="lowercase(lemma)"/>
					<Constant dataType="string">bolivia</Constant>
				</Apply>
			</DerivedField>
			<DerivedField name="tf(lowercase(lemma), border)" optype="continuous" dataType="integer">
				<Apply function="tf(lowercase(lemma))">
					<FieldRef field="lowercase(lemma)"/>
					<Constant dataType="string">border</Constant>
				</Apply>
			</DerivedField>
			<DerivedField name="tf(lowercase(lemma), brazil)" optype="continuous" dataType="integer">
				<Apply function="tf(lowercase(lemma))">
					<FieldRef field="lowercase(lemma)"/>
					<Constant dataType="string">brazil</Constant>
				</Apply>
			</DerivedField>
			<DerivedField name="tf(lowercase(lemma), brexit)" optype="continuous" dataType="integer">
				<Apply function="tf(lowercase(lemma))">
					<FieldRef field="lowercase(lemma)"/>
					<Constant dataType="string">brexit</Constant>
				</Apply>
			</DerivedField>
			<DerivedField name="tf(lowercase(lemma), bring)" optype="continuous" dataType="integer">
				<Apply function="tf(lowercase(lemma))">
					<FieldRef field="lowercase(lemma)"/>
					<Constant dataType="string">bring</Constant>
				</Apply>
			</DerivedField>
			<DerivedField name="tf(lowercase(lemma), brokering)" optype="continuous" dataType="integer">
				<Apply function="tf(lowercase(lemma))">
					<FieldRef field="lowercase(lemma)"/>
					<Constant dataType="string">brokering</Constant>
				</Apply>
			</DerivedField>
			<DerivedField name="tf(lowercase(lemma), bruno)" optype="continuous" dataType="integer">
				<Apply function="tf(lowercase(lemma))">
					<FieldRef field="lowercase(lemma)"/>
					<Constant dataType="string">bruno</Constant>
				</Apply>
			</DerivedField>
			<DerivedField name="tf(lowercase(lemma), bt)" optype="continuous" dataType="integer">
				<Apply function="tf(lowercase(lemma))">
					<FieldRef field="lowercase(lemma)"/>
					<Constant dataType="string">bt</Constant>
				</Apply>
			</DerivedField>
			<DerivedField name="tf(lowercase(lemma), bt11)" optype="continuous" dataType="integer">
				<Apply function="tf(lowercase(lemma))">
					<FieldRef field="lowercase(lemma)"/>
					<Constant dataType="string">bt11</Constant>
				</Apply>
			</DerivedField>
			<DerivedField name="tf(lowercase(lemma), btikofer)" optype="continuous" dataType="integer">
				<Apply function="tf(lowercase(lemma))">
					<FieldRef field="lowercase(lemma)"/>
					<Constant dataType="string">btikofer</Constant>
				</Apply>
			</DerivedField>
			<DerivedField name="tf(lowercase(lemma), budget)" optype="continuous" dataType="integer">
				<Apply function="tf(lowercase(lemma))">
					<FieldRef field="lowercase(lemma)"/>
					<Constant dataType="string">budget</Constant>
				</Apply>
			</DerivedField>
			<DerivedField name="tf(lowercase(lemma), budgetary)" optype="continuous" dataType="integer">
				<Apply function="tf(lowercase(lemma))">
					<FieldRef field="lowercase(lemma)"/>
					<Constant dataType="string">budgetary</Constant>
				</Apply>
			</DerivedField>
			<DerivedField name="tf(lowercase(lemma), buildings)" optype="continuous" dataType="integer">
				<Apply function="tf(lowercase(lemma))">
					<FieldRef field="lowercase(lemma)"/>
					<Constant dataType="string">buildings</Constant>
				</Apply>
			</DerivedField>
			<DerivedField name="tf(lowercase(lemma), bus)" optype="continuous" dataType="integer">
				<Apply function="tf(lowercase(lemma))">
					<FieldRef field="lowercase(lemma)"/>
					<Constant dataType="string">bus</Constant>
				</Apply>
			</DerivedField>
			<DerivedField name="tf(lowercase(lemma), c9)" optype="continuous" dataType="integer">
				<Apply function="tf(lowercase(lemma))">
					<FieldRef field="lowercase(lemma)"/>
					<Constant dataType="string">c9</Constant>
				</Apply>
			</DerivedField>
			<DerivedField name="tf(lowercase(lemma), cabo)" optype="continuous" dataType="integer">
				<Apply function="tf(lowercase(lemma))">
					<FieldRef field="lowercase(lemma)"/>
					<Constant dataType="string">cabo</Constant>
				</Apply>
			</DerivedField>
			<DerivedField name="tf(lowercase(lemma), cage)" optype="continuous" dataType="integer">
				<Apply function="tf(lowercase(lemma))">
					<FieldRef field="lowercase(lemma)"/>
					<Constant dataType="string">cage</Constant>
				</Apply>
			</DerivedField>
			<DerivedField name="tf(lowercase(lemma), call)" optype="continuous" dataType="integer">
				<Apply function="tf(lowercase(lemma))">
					<FieldRef field="lowercase(lemma)"/>
					<Constant dataType="string">call</Constant>
				</Apply>
			</DerivedField>
			<DerivedField name="tf(lowercase(lemma), cambodia)" optype="continuous" dataType="integer">
				<Apply function="tf(lowercase(lemma))">
					<FieldRef field="lowercase(lemma)"/>
					<Constant dataType="string">cambodia</Constant>
				</Apply>
			</DerivedField>
			<DerivedField name="tf(lowercase(lemma), camp)" optype="continuous" dataType="integer">
				<Apply function="tf(lowercase(lemma))">
					<FieldRef field="lowercase(lemma)"/>
					<Constant dataType="string">camp</Constant>
				</Apply>
			</DerivedField>
			<DerivedField name="tf(lowercase(lemma), canary)" optype="continuous" dataType="integer">
				<Apply function="tf(lowercase(lemma))">
					<FieldRef field="lowercase(lemma)"/>
					<Constant dataType="string">canary</Constant>
				</Apply>
			</DerivedField>
			<DerivedField name="tf(lowercase(lemma), cancer)" optype="continuous" dataType="integer">
				<Apply function="tf(lowercase(lemma))">
					<FieldRef field="lowercase(lemma)"/>
					<Constant dataType="string">cancer</Constant>
				</Apply>
			</DerivedField>
			<DerivedField name="tf(lowercase(lemma), capacity)" optype="continuous" dataType="integer">
				<Apply function="tf(lowercase(lemma))">
					<FieldRef field="lowercase(lemma)"/>
					<Constant dataType="string">capacity</Constant>
				</Apply>
			</DerivedField>
			<DerivedField name="tf(lowercase(lemma), capital)" optype="continuous" dataType="integer">
				<Apply function="tf(lowercase(lemma))">
					<FieldRef field="lowercase(lemma)"/>
					<Constant dataType="string">capital</Constant>
				</Apply>
			</DerivedField>
			<DerivedField name="tf(lowercase(lemma), car)" optype="continuous" dataType="integer">
				<Apply function="tf(lowercase(lemma))">
					<FieldRef field="lowercase(lemma)"/>
					<Constant dataType="string">car</Constant>
				</Apply>
			</DerivedField>
			<DerivedField name="tf(lowercase(lemma), carbon)" optype="continuous" dataType="integer">
				<Apply function="tf(lowercase(lemma))">
					<FieldRef field="lowercase(lemma)"/>
					<Constant dataType="string">carbon</Constant>
				</Apply>
			</DerivedField>
			<DerivedField name="tf(lowercase(lemma), card)" optype="continuous" dataType="integer">
				<Apply function="tf(lowercase(lemma))">
					<FieldRef field="lowercase(lemma)"/>
					<Constant dataType="string">card</Constant>
				</Apply>
			</DerivedField>
			<DerivedField name="tf(lowercase(lemma), cardinal)" optype="continuous" dataType="integer">
				<Apply function="tf(lowercase(lemma))">
					<FieldRef field="lowercase(lemma)"/>
					<Constant dataType="string">cardinal</Constant>
				</Apply>
			</DerivedField>
			<DerivedField name="tf(lowercase(lemma), care)" optype="continuous" dataType="integer">
				<Apply function="tf(lowercase(lemma))">
					<FieldRef field="lowercase(lemma)"/>
					<Constant dataType="string">care</Constant>
				</Apply>
			</DerivedField>
			<DerivedField name="tf(lowercase(lemma), carriage)" optype="continuous" dataType="integer">
				<Apply function="tf(lowercase(lemma))">
					<FieldRef field="lowercase(lemma)"/>
					<Constant dataType="string">carriage</Constant>
				</Apply>
			</DerivedField>
			<DerivedField name="tf(lowercase(lemma), carry)" optype="continuous" dataType="integer">
				<Apply function="tf(lowercase(lemma))">
					<FieldRef field="lowercase(lemma)"/>
					<Constant dataType="string">carry</Constant>
				</Apply>
			</DerivedField>
			<DerivedField name="tf(lowercase(lemma), caruana)" optype="continuous" dataType="integer">
				<Apply function="tf(lowercase(lemma))">
					<FieldRef field="lowercase(lemma)"/>
					<Constant dataType="string">caruana</Constant>
				</Apply>
			</DerivedField>
			<DerivedField name="tf(lowercase(lemma), case)" optype="continuous" dataType="integer">
				<Apply function="tf(lowercase(lemma))">
					<FieldRef field="lowercase(lemma)"/>
					<Constant dataType="string">case</Constant>
				</Apply>
			</DerivedField>
			<DerivedField name="tf(lowercase(lemma), catch)" optype="continuous" dataType="integer">
				<Apply function="tf(lowercase(lemma))">
					<FieldRef field="lowercase(lemma)"/>
					<Constant dataType="string">catch</Constant>
				</Apply>
			</DerivedField>
			<DerivedField name="tf(lowercase(lemma), cause)" optype="continuous" dataType="integer">
				<Apply function="tf(lowercase(lemma))">
					<FieldRef field="lowercase(lemma)"/>
					<Constant dataType="string">cause</Constant>
				</Apply>
			</DerivedField>
			<DerivedField name="tf(lowercase(lemma), cells)" optype="continuous" dataType="integer">
				<Apply function="tf(lowercase(lemma))">
					<FieldRef field="lowercase(lemma)"/>
					<Constant dataType="string">cells</Constant>
				</Apply>
			</DerivedField>
			<DerivedField name="tf(lowercase(lemma), central)" optype="continuous" dataType="integer">
				<Apply function="tf(lowercase(lemma))">
					<FieldRef field="lowercase(lemma)"/>
					<Constant dataType="string">central</Constant>
				</Apply>
			</DerivedField>
			<DerivedField name="tf(lowercase(lemma), centre)" optype="continuous" dataType="integer">
				<Apply function="tf(lowercase(lemma))">
					<FieldRef field="lowercase(lemma)"/>
					<Constant dataType="string">centre</Constant>
				</Apply>
			</DerivedField>
			<DerivedField name="tf(lowercase(lemma), cepol)" optype="continuous" dataType="integer">
				<Apply function="tf(lowercase(lemma))">
					<FieldRef field="lowercase(lemma)"/>
					<Constant dataType="string">cepol</Constant>
				</Apply>
			</DerivedField>
			<DerivedField name="tf(lowercase(lemma), certain)" optype="continuous" dataType="integer">
				<Apply function="tf(lowercase(lemma))">
					<FieldRef field="lowercase(lemma)"/>
					<Constant dataType="string">certain</Constant>
				</Apply>
			</DerivedField>
			<DerivedField name="tf(lowercase(lemma), certificate)" optype="continuous" dataType="integer">
				<Apply function="tf(lowercase(lemma))">
					<FieldRef field="lowercase(lemma)"/>
					<Constant dataType="string">certificate</Constant>
				</Apply>
			</DerivedField>
			<DerivedField name="tf(lowercase(lemma), certification)" optype="continuous" dataType="integer">
				<Apply function="tf(lowercase(lemma))">
					<FieldRef field="lowercase(lemma)"/>
					<Constant dataType="string">certification</Constant>
				</Apply>
			</DerivedField>
			<DerivedField name="tf(lowercase(lemma), chad)" optype="continuous" dataType="integer">
				<Apply function="tf(lowercase(lemma))">
					<FieldRef field="lowercase(lemma)"/>
					<Constant dataType="string">chad</Constant>
				</Apply>
			</DerivedField>
			<DerivedField name="tf(lowercase(lemma), chain)" optype="continuous" dataType="integer">
				<Apply function="tf(lowercase(lemma))">
					<FieldRef field="lowercase(lemma)"/>
					<Constant dataType="string">chain</Constant>
				</Apply>
			</DerivedField>
			<DerivedField name="tf(lowercase(lemma), challenge)" optype="continuous" dataType="integer">
				<Apply function="tf(lowercase(lemma))">
					<FieldRef field="lowercase(lemma)"/>
					<Constant dataType="string">challenge</Constant>
				</Apply>
			</DerivedField>
			<DerivedField name="tf(lowercase(lemma), change)" optype="continuous" dataType="integer">
				<Apply function="tf(lowercase(lemma))">
					<FieldRef field="lowercase(lemma)"/>
					<Constant dataType="string">change</Constant>
				</Apply>
			</DerivedField>
			<DerivedField name="tf(lowercase(lemma), channel)" optype="continuous" dataType="integer">
				<Apply function="tf(lowercase(lemma))">
					<FieldRef field="lowercase(lemma)"/>
					<Constant dataType="string">channel</Constant>
				</Apply>
			</DerivedField>
			<DerivedField name="tf(lowercase(lemma), chapter)" optype="continuous" dataType="integer">
				<Apply function="tf(lowercase(lemma))">
					<FieldRef field="lowercase(lemma)"/>
					<Constant dataType="string">chapter</Constant>
				</Apply>
			</DerivedField>
			<DerivedField name="tf(lowercase(lemma), charger)" optype="continuous" dataType="integer">
				<Apply function="tf(lowercase(lemma))">
					<FieldRef field="lowercase(lemma)"/>
					<Constant dataType="string">charger</Constant>
				</Apply>
			</DerivedField>
			<DerivedField name="tf(lowercase(lemma), check)" optype="continuous" dataType="integer">
				<Apply function="tf(lowercase(lemma))">
					<FieldRef field="lowercase(lemma)"/>
					<Constant dataType="string">check</Constant>
				</Apply>
			</DerivedField>
			<DerivedField name="tf(lowercase(lemma), chemicals)" optype="continuous" dataType="integer">
				<Apply function="tf(lowercase(lemma))">
					<FieldRef field="lowercase(lemma)"/>
					<Constant dataType="string">chemicals</Constant>
				</Apply>
			</DerivedField>
			<DerivedField name="tf(lowercase(lemma), child)" optype="continuous" dataType="integer">
				<Apply function="tf(lowercase(lemma))">
					<FieldRef field="lowercase(lemma)"/>
					<Constant dataType="string">child</Constant>
				</Apply>
			</DerivedField>
			<DerivedField name="tf(lowercase(lemma), children)" optype="continuous" dataType="integer">
				<Apply function="tf(lowercase(lemma))">
					<FieldRef field="lowercase(lemma)"/>
					<Constant dataType="string">children</Constant>
				</Apply>
			</DerivedField>
			<DerivedField name="tf(lowercase(lemma), china)" optype="continuous" dataType="integer">
				<Apply function="tf(lowercase(lemma))">
					<FieldRef field="lowercase(lemma)"/>
					<Constant dataType="string">china</Constant>
				</Apply>
			</DerivedField>
			<DerivedField name="tf(lowercase(lemma), chinese)" optype="continuous" dataType="integer">
				<Apply function="tf(lowercase(lemma))">
					<FieldRef field="lowercase(lemma)"/>
					<Constant dataType="string">chinese</Constant>
				</Apply>
			</DerivedField>
			<DerivedField name="tf(lowercase(lemma), chlorotoluron)" optype="continuous" dataType="integer">
				<Apply function="tf(lowercase(lemma))">
					<FieldRef field="lowercase(lemma)"/>
					<Constant dataType="string">chlorotoluron</Constant>
				</Apply>
			</DerivedField>
			<DerivedField name="tf(lowercase(lemma), cite)" optype="continuous" dataType="integer">
				<Apply function="tf(lowercase(lemma))">
					<FieldRef field="lowercase(lemma)"/>
					<Constant dataType="string">cite</Constant>
				</Apply>
			</DerivedField>
			<DerivedField name="tf(lowercase(lemma), citizen)" optype="continuous" dataType="integer">
				<Apply function="tf(lowercase(lemma))">
					<FieldRef field="lowercase(lemma)"/>
					<Constant dataType="string">citizen</Constant>
				</Apply>
			</DerivedField>
			<DerivedField name="tf(lowercase(lemma), citizens)" optype="continuous" dataType="integer">
				<Apply function="tf(lowercase(lemma))">
					<FieldRef field="lowercase(lemma)"/>
					<Constant dataType="string">citizens</Constant>
				</Apply>
			</DerivedField>
			<DerivedField name="tf(lowercase(lemma), citizenship)" optype="continuous" dataType="integer">
				<Apply function="tf(lowercase(lemma))">
					<FieldRef field="lowercase(lemma)"/>
					<Constant dataType="string">citizenship</Constant>
				</Apply>
			</DerivedField>
			<DerivedField name="tf(lowercase(lemma), civil)" optype="continuous" dataType="integer">
				<Apply function="tf(lowercase(lemma))">
					<FieldRef field="lowercase(lemma)"/>
					<Constant dataType="string">civil</Constant>
				</Apply>
			</DerivedField>
			<DerivedField name="tf(lowercase(lemma), civilian)" optype="continuous" dataType="integer">
				<Apply function="tf(lowercase(lemma))">
					<FieldRef field="lowercase(lemma)"/>
					<Constant dataType="string">civilian</Constant>
				</Apply>
			</DerivedField>
			<DerivedField name="tf(lowercase(lemma), clean)" optype="continuous" dataType="integer">
				<Apply function="tf(lowercase(lemma))">
					<FieldRef field="lowercase(lemma)"/>
					<Constant dataType="string">clean</Constant>
				</Apply>
			</DerivedField>
			<DerivedField name="tf(lowercase(lemma), climate)" optype="continuous" dataType="integer">
				<Apply function="tf(lowercase(lemma))">
					<FieldRef field="lowercase(lemma)"/>
					<Constant dataType="string">climate</Constant>
				</Apply>
			</DerivedField>
			<DerivedField name="tf(lowercase(lemma), co2)" optype="continuous" dataType="integer">
				<Apply function="tf(lowercase(lemma))">
					<FieldRef field="lowercase(lemma)"/>
					<Constant dataType="string">co2</Constant>
				</Apply>
			</DerivedField>
			<DerivedField name="tf(lowercase(lemma), coach)" optype="continuous" dataType="integer">
				<Apply function="tf(lowercase(lemma))">
					<FieldRef field="lowercase(lemma)"/>
					<Constant dataType="string">coach</Constant>
				</Apply>
			</DerivedField>
			<DerivedField name="tf(lowercase(lemma), coal)" optype="continuous" dataType="integer">
				<Apply function="tf(lowercase(lemma))">
					<FieldRef field="lowercase(lemma)"/>
					<Constant dataType="string">coal</Constant>
				</Apply>
			</DerivedField>
			<DerivedField name="tf(lowercase(lemma), coast)" optype="continuous" dataType="integer">
				<Apply function="tf(lowercase(lemma))">
					<FieldRef field="lowercase(lemma)"/>
					<Constant dataType="string">coast</Constant>
				</Apply>
			</DerivedField>
			<DerivedField name="tf(lowercase(lemma), codification)" optype="continuous" dataType="integer">
				<Apply function="tf(lowercase(lemma))">
					<FieldRef field="lowercase(lemma)"/>
					<Constant dataType="string">codification</Constant>
				</Apply>
			</DerivedField>
			<DerivedField name="tf(lowercase(lemma), cohesion)" optype="continuous" dataType="integer">
				<Apply function="tf(lowercase(lemma))">
					<FieldRef field="lowercase(lemma)"/>
					<Constant dataType="string">cohesion</Constant>
				</Apply>
			</DerivedField>
			<DerivedField name="tf(lowercase(lemma), collection)" optype="continuous" dataType="integer">
				<Apply function="tf(lowercase(lemma))">
					<FieldRef field="lowercase(lemma)"/>
					<Constant dataType="string">collection</Constant>
				</Apply>
			</DerivedField>
			<DerivedField name="tf(lowercase(lemma), collective)" optype="continuous" dataType="integer">
				<Apply function="tf(lowercase(lemma))">
					<FieldRef field="lowercase(lemma)"/>
					<Constant dataType="string">collective</Constant>
				</Apply>
			</DerivedField>
			<DerivedField name="tf(lowercase(lemma), colombia)" optype="continuous" dataType="integer">
				<Apply function="tf(lowercase(lemma))">
					<FieldRef field="lowercase(lemma)"/>
					<Constant dataType="string">colombia</Constant>
				</Apply>
			</DerivedField>
			<DerivedField name="tf(lowercase(lemma), combat)" optype="continuous" dataType="integer">
				<Apply function="tf(lowercase(lemma))">
					<FieldRef field="lowercase(lemma)"/>
					<Constant dataType="string">combat</Constant>
				</Apply>
			</DerivedField>
			<DerivedField name="tf(lowercase(lemma), commission)" optype="continuous" dataType="integer">
				<Apply function="tf(lowercase(lemma))">
					<FieldRef field="lowercase(lemma)"/>
					<Constant dataType="string">commission</Constant>
				</Apply>
			</DerivedField>
			<DerivedField name="tf(lowercase(lemma), commissioner)" optype="continuous" dataType="integer">
				<Apply function="tf(lowercase(lemma))">
					<FieldRef field="lowercase(lemma)"/>
					<Constant dataType="string">commissioner</Constant>
				</Apply>
			</DerivedField>
			<DerivedField name="tf(lowercase(lemma), commitment)" optype="continuous" dataType="integer">
				<Apply function="tf(lowercase(lemma))">
					<FieldRef field="lowercase(lemma)"/>
					<Constant dataType="string">commitment</Constant>
				</Apply>
			</DerivedField>
			<DerivedField name="tf(lowercase(lemma), committee)" optype="continuous" dataType="integer">
				<Apply function="tf(lowercase(lemma))">
					<FieldRef field="lowercase(lemma)"/>
					<Constant dataType="string">committee</Constant>
				</Apply>
			</DerivedField>
			<DerivedField name="tf(lowercase(lemma), commodity)" optype="continuous" dataType="integer">
				<Apply function="tf(lowercase(lemma))">
					<FieldRef field="lowercase(lemma)"/>
					<Constant dataType="string">commodity</Constant>
				</Apply>
			</DerivedField>
			<DerivedField name="tf(lowercase(lemma), common)" optype="continuous" dataType="integer">
				<Apply function="tf(lowercase(lemma))">
					<FieldRef field="lowercase(lemma)"/>
					<Constant dataType="string">common</Constant>
				</Apply>
			</DerivedField>
			<DerivedField name="tf(lowercase(lemma), community)" optype="continuous" dataType="integer">
				<Apply function="tf(lowercase(lemma))">
					<FieldRef field="lowercase(lemma)"/>
					<Constant dataType="string">community</Constant>
				</Apply>
			</DerivedField>
			<DerivedField name="tf(lowercase(lemma), company)" optype="continuous" dataType="integer">
				<Apply function="tf(lowercase(lemma))">
					<FieldRef field="lowercase(lemma)"/>
					<Constant dataType="string">company</Constant>
				</Apply>
			</DerivedField>
			<DerivedField name="tf(lowercase(lemma), competition)" optype="continuous" dataType="integer">
				<Apply function="tf(lowercase(lemma))">
					<FieldRef field="lowercase(lemma)"/>
					<Constant dataType="string">competition</Constant>
				</Apply>
			</DerivedField>
			<DerivedField name="tf(lowercase(lemma), competitive)" optype="continuous" dataType="integer">
				<Apply function="tf(lowercase(lemma))">
					<FieldRef field="lowercase(lemma)"/>
					<Constant dataType="string">competitive</Constant>
				</Apply>
			</DerivedField>
			<DerivedField name="tf(lowercase(lemma), competitiveness)" optype="continuous" dataType="integer">
				<Apply function="tf(lowercase(lemma))">
					<FieldRef field="lowercase(lemma)"/>
					<Constant dataType="string">competitiveness</Constant>
				</Apply>
			</DerivedField>
			<DerivedField name="tf(lowercase(lemma), compliance)" optype="continuous" dataType="integer">
				<Apply function="tf(lowercase(lemma))">
					<FieldRef field="lowercase(lemma)"/>
					<Constant dataType="string">compliance</Constant>
				</Apply>
			</DerivedField>
			<DerivedField name="tf(lowercase(lemma), computing)" optype="continuous" dataType="integer">
				<Apply function="tf(lowercase(lemma))">
					<FieldRef field="lowercase(lemma)"/>
					<Constant dataType="string">computing</Constant>
				</Apply>
			</DerivedField>
			<DerivedField name="tf(lowercase(lemma), concern)" optype="continuous" dataType="integer">
				<Apply function="tf(lowercase(lemma))">
					<FieldRef field="lowercase(lemma)"/>
					<Constant dataType="string">concern</Constant>
				</Apply>
			</DerivedField>
			<DerivedField name="tf(lowercase(lemma), conclusion)" optype="continuous" dataType="integer">
				<Apply function="tf(lowercase(lemma))">
					<FieldRef field="lowercase(lemma)"/>
					<Constant dataType="string">conclusion</Constant>
				</Apply>
			</DerivedField>
			<DerivedField name="tf(lowercase(lemma), conditionality)" optype="continuous" dataType="integer">
				<Apply function="tf(lowercase(lemma))">
					<FieldRef field="lowercase(lemma)"/>
					<Constant dataType="string">conditionality</Constant>
				</Apply>
			</DerivedField>
			<DerivedField name="tf(lowercase(lemma), conditions)" optype="continuous" dataType="integer">
				<Apply function="tf(lowercase(lemma))">
					<FieldRef field="lowercase(lemma)"/>
					<Constant dataType="string">conditions</Constant>
				</Apply>
			</DerivedField>
			<DerivedField name="tf(lowercase(lemma), conference)" optype="continuous" dataType="integer">
				<Apply function="tf(lowercase(lemma))">
					<FieldRef field="lowercase(lemma)"/>
					<Constant dataType="string">conference</Constant>
				</Apply>
			</DerivedField>
			<DerivedField name="tf(lowercase(lemma), conferral)" optype="continuous" dataType="integer">
				<Apply function="tf(lowercase(lemma))">
					<FieldRef field="lowercase(lemma)"/>
					<Constant dataType="string">conferral</Constant>
				</Apply>
			</DerivedField>
			<DerivedField name="tf(lowercase(lemma), conflict)" optype="continuous" dataType="integer">
				<Apply function="tf(lowercase(lemma))">
					<FieldRef field="lowercase(lemma)"/>
					<Constant dataType="string">conflict</Constant>
				</Apply>
			</DerivedField>
			<DerivedField name="tf(lowercase(lemma), congo)" optype="continuous" dataType="integer">
				<Apply function="tf(lowercase(lemma))">
					<FieldRef field="lowercase(lemma)"/>
					<Constant dataType="string">congo</Constant>
				</Apply>
			</DerivedField>
			<DerivedField name="tf(lowercase(lemma), connectivity)" optype="continuous" dataType="integer">
				<Apply function="tf(lowercase(lemma))">
					<FieldRef field="lowercase(lemma)"/>
					<Constant dataType="string">connectivity</Constant>
				</Apply>
			</DerivedField>
			<DerivedField name="tf(lowercase(lemma), consequence)" optype="continuous" dataType="integer">
				<Apply function="tf(lowercase(lemma))">
					<FieldRef field="lowercase(lemma)"/>
					<Constant dataType="string">consequence</Constant>
				</Apply>
			</DerivedField>
			<DerivedField name="tf(lowercase(lemma), consequential)" optype="continuous" dataType="integer">
				<Apply function="tf(lowercase(lemma))">
					<FieldRef field="lowercase(lemma)"/>
					<Constant dataType="string">consequential</Constant>
				</Apply>
			</DerivedField>
			<DerivedField name="tf(lowercase(lemma), conservation)" optype="continuous" dataType="integer">
				<Apply function="tf(lowercase(lemma))">
					<FieldRef field="lowercase(lemma)"/>
					<Constant dataType="string">conservation</Constant>
				</Apply>
			</DerivedField>
			<DerivedField name="tf(lowercase(lemma), construction)" optype="continuous" dataType="integer">
				<Apply function="tf(lowercase(lemma))">
					<FieldRef field="lowercase(lemma)"/>
					<Constant dataType="string">construction</Constant>
				</Apply>
			</DerivedField>
			<DerivedField name="tf(lowercase(lemma), consumer)" optype="continuous" dataType="integer">
				<Apply function="tf(lowercase(lemma))">
					<FieldRef field="lowercase(lemma)"/>
					<Constant dataType="string">consumer</Constant>
				</Apply>
			</DerivedField>
			<DerivedField name="tf(lowercase(lemma), content)" optype="continuous" dataType="integer">
				<Apply function="tf(lowercase(lemma))">
					<FieldRef field="lowercase(lemma)"/>
					<Constant dataType="string">content</Constant>
				</Apply>
			</DerivedField>
			<DerivedField name="tf(lowercase(lemma), context)" optype="continuous" dataType="integer">
				<Apply function="tf(lowercase(lemma))">
					<FieldRef field="lowercase(lemma)"/>
					<Constant dataType="string">context</Constant>
				</Apply>
			</DerivedField>
			<DerivedField name="tf(lowercase(lemma), continent)" optype="continuous" dataType="integer">
				<Apply function="tf(lowercase(lemma))">
					<FieldRef field="lowercase(lemma)"/>
					<Constant dataType="string">continent</Constant>
				</Apply>
			</DerivedField>
			<DerivedField name="tf(lowercase(lemma), continue)" optype="continuous" dataType="integer">
				<Apply function="tf(lowercase(lemma))">
					<FieldRef field="lowercase(lemma)"/>
					<Constant dataType="string">continue</Constant>
				</Apply>
			</DerivedField>
			<DerivedField name="tf(lowercase(lemma), continuous)" optype="continuous" dataType="integer">
				<Apply function="tf(lowercase(lemma))">
					<FieldRef field="lowercase(lemma)"/>
					<Constant dataType="string">continuous</Constant>
				</Apply>
			</DerivedField>
			<DerivedField name="tf(lowercase(lemma), contribution)" optype="continuous" dataType="integer">
				<Apply function="tf(lowercase(lemma))">
					<FieldRef field="lowercase(lemma)"/>
					<Constant dataType="string">contribution</Constant>
				</Apply>
			</DerivedField>
			<DerivedField name="tf(lowercase(lemma), control)" optype="continuous" dataType="integer">
				<Apply function="tf(lowercase(lemma))">
					<FieldRef field="lowercase(lemma)"/>
					<Constant dataType="string">control</Constant>
				</Apply>
			</DerivedField>
			<DerivedField name="tf(lowercase(lemma), convention)" optype="continuous" dataType="integer">
				<Apply function="tf(lowercase(lemma))">
					<FieldRef field="lowercase(lemma)"/>
					<Constant dataType="string">convention</Constant>
				</Apply>
			</DerivedField>
			<DerivedField name="tf(lowercase(lemma), cook)" optype="continuous" dataType="integer">
				<Apply function="tf(lowercase(lemma))">
					<FieldRef field="lowercase(lemma)"/>
					<Constant dataType="string">cook</Constant>
				</Apply>
			</DerivedField>
			<DerivedField name="tf(lowercase(lemma), cooperation)" optype="continuous" dataType="integer">
				<Apply function="tf(lowercase(lemma))">
					<FieldRef field="lowercase(lemma)"/>
					<Constant dataType="string">cooperation</Constant>
				</Apply>
			</DerivedField>
			<DerivedField name="tf(lowercase(lemma), coordination)" optype="continuous" dataType="integer">
				<Apply function="tf(lowercase(lemma))">
					<FieldRef field="lowercase(lemma)"/>
					<Constant dataType="string">coordination</Constant>
				</Apply>
			</DerivedField>
			<DerivedField name="tf(lowercase(lemma), cop19)" optype="continuous" dataType="integer">
				<Apply function="tf(lowercase(lemma))">
					<FieldRef field="lowercase(lemma)"/>
					<Constant dataType="string">cop19</Constant>
				</Apply>
			</DerivedField>
			<DerivedField name="tf(lowercase(lemma), cop26)" optype="continuous" dataType="integer">
				<Apply function="tf(lowercase(lemma))">
					<FieldRef field="lowercase(lemma)"/>
					<Constant dataType="string">cop26</Constant>
				</Apply>
			</DerivedField>
			<DerivedField name="tf(lowercase(lemma), corporate)" optype="continuous" dataType="integer">
				<Apply function="tf(lowercase(lemma))">
					<FieldRef field="lowercase(lemma)"/>
					<Constant dataType="string">corporate</Constant>
				</Apply>
			</DerivedField>
			<DerivedField name="tf(lowercase(lemma), corsia)" optype="continuous" dataType="integer">
				<Apply function="tf(lowercase(lemma))">
					<FieldRef field="lowercase(lemma)"/>
					<Constant dataType="string">corsia</Constant>
				</Apply>
			</DerivedField>
			<DerivedField name="tf(lowercase(lemma), cotton)" optype="continuous" dataType="integer">
				<Apply function="tf(lowercase(lemma))">
					<FieldRef field="lowercase(lemma)"/>
					<Constant dataType="string">cotton</Constant>
				</Apply>
			</DerivedField>
			<DerivedField name="tf(lowercase(lemma), council)" optype="continuous" dataType="integer">
				<Apply function="tf(lowercase(lemma))">
					<FieldRef field="lowercase(lemma)"/>
					<Constant dataType="string">council</Constant>
				</Apply>
			</DerivedField>
			<DerivedField name="tf(lowercase(lemma), counterfeiting)" optype="continuous" dataType="integer">
				<Apply function="tf(lowercase(lemma))">
					<FieldRef field="lowercase(lemma)"/>
					<Constant dataType="string">counterfeiting</Constant>
				</Apply>
			</DerivedField>
			<DerivedField name="tf(lowercase(lemma), countersanction)" optype="continuous" dataType="integer">
				<Apply function="tf(lowercase(lemma))">
					<FieldRef field="lowercase(lemma)"/>
					<Constant dataType="string">countersanction</Constant>
				</Apply>
			</DerivedField>
			<DerivedField name="tf(lowercase(lemma), country)" optype="continuous" dataType="integer">
				<Apply function="tf(lowercase(lemma))">
					<FieldRef field="lowercase(lemma)"/>
					<Constant dataType="string">country</Constant>
				</Apply>
			</DerivedField>
			<DerivedField name="tf(lowercase(lemma), coup)" optype="continuous" dataType="integer">
				<Apply function="tf(lowercase(lemma))">
					<FieldRef field="lowercase(lemma)"/>
					<Constant dataType="string">coup</Constant>
				</Apply>
			</DerivedField>
			<DerivedField name="tf(lowercase(lemma), court)" optype="continuous" dataType="integer">
				<Apply function="tf(lowercase(lemma))">
					<FieldRef field="lowercase(lemma)"/>
					<Constant dataType="string">court</Constant>
				</Apply>
			</DerivedField>
			<DerivedField name="tf(lowercase(lemma), covid)" optype="continuous" dataType="integer">
				<Apply function="tf(lowercase(lemma))">
					<FieldRef field="lowercase(lemma)"/>
					<Constant dataType="string">covid</Constant>
				</Apply>
			</DerivedField>
			<DerivedField name="tf(lowercase(lemma), crackdown)" optype="continuous" dataType="integer">
				<Apply function="tf(lowercase(lemma))">
					<FieldRef field="lowercase(lemma)"/>
					<Constant dataType="string">crackdown</Constant>
				</Apply>
			</DerivedField>
			<DerivedField name="tf(lowercase(lemma), credit)" optype="continuous" dataType="integer">
				<Apply function="tf(lowercase(lemma))">
					<FieldRef field="lowercase(lemma)"/>
					<Constant dataType="string">credit</Constant>
				</Apply>
			</DerivedField>
			<DerivedField name="tf(lowercase(lemma), crime)" optype="continuous" dataType="integer">
				<Apply function="tf(lowercase(lemma))">
					<FieldRef field="lowercase(lemma)"/>
					<Constant dataType="string">crime</Constant>
				</Apply>
			</DerivedField>
			<DerivedField name="tf(lowercase(lemma), criminal)" optype="continuous" dataType="integer">
				<Apply function="tf(lowercase(lemma))">
					<FieldRef field="lowercase(lemma)"/>
					<Constant dataType="string">criminal</Constant>
				</Apply>
			</DerivedField>
			<DerivedField name="tf(lowercase(lemma), crisis)" optype="continuous" dataType="integer">
				<Apply function="tf(lowercase(lemma))">
					<FieldRef field="lowercase(lemma)"/>
					<Constant dataType="string">crisis</Constant>
				</Apply>
			</DerivedField>
			<DerivedField name="tf(lowercase(lemma), criteria)" optype="continuous" dataType="integer">
				<Apply function="tf(lowercase(lemma))">
					<FieldRef field="lowercase(lemma)"/>
					<Constant dataType="string">criteria</Constant>
				</Apply>
			</DerivedField>
			<DerivedField name="tf(lowercase(lemma), critical)" optype="continuous" dataType="integer">
				<Apply function="tf(lowercase(lemma))">
					<FieldRef field="lowercase(lemma)"/>
					<Constant dataType="string">critical</Constant>
				</Apply>
			</DerivedField>
			<DerivedField name="tf(lowercase(lemma), croatia)" optype="continuous" dataType="integer">
				<Apply function="tf(lowercase(lemma))">
					<FieldRef field="lowercase(lemma)"/>
					<Constant dataType="string">croatia</Constant>
				</Apply>
			</DerivedField>
			<DerivedField name="tf(lowercase(lemma), cross)" optype="continuous" dataType="integer">
				<Apply function="tf(lowercase(lemma))">
					<FieldRef field="lowercase(lemma)"/>
					<Constant dataType="string">cross</Constant>
				</Apply>
			</DerivedField>
			<DerivedField name="tf(lowercase(lemma), cuba)" optype="continuous" dataType="integer">
				<Apply function="tf(lowercase(lemma))">
					<FieldRef field="lowercase(lemma)"/>
					<Constant dataType="string">cuba</Constant>
				</Apply>
			</DerivedField>
			<DerivedField name="tf(lowercase(lemma), cultural)" optype="continuous" dataType="integer">
				<Apply function="tf(lowercase(lemma))">
					<FieldRef field="lowercase(lemma)"/>
					<Constant dataType="string">cultural</Constant>
				</Apply>
			</DerivedField>
			<DerivedField name="tf(lowercase(lemma), culture)" optype="continuous" dataType="integer">
				<Apply function="tf(lowercase(lemma))">
					<FieldRef field="lowercase(lemma)"/>
					<Constant dataType="string">culture</Constant>
				</Apply>
			</DerivedField>
			<DerivedField name="tf(lowercase(lemma), customs)" optype="continuous" dataType="integer">
				<Apply function="tf(lowercase(lemma))">
					<FieldRef field="lowercase(lemma)"/>
					<Constant dataType="string">customs</Constant>
				</Apply>
			</DerivedField>
			<DerivedField name="tf(lowercase(lemma), cybersecurity)" optype="continuous" dataType="integer">
				<Apply function="tf(lowercase(lemma))">
					<FieldRef field="lowercase(lemma)"/>
					<Constant dataType="string">cybersecurity</Constant>
				</Apply>
			</DerivedField>
			<DerivedField name="tf(lowercase(lemma), cyberviolence)" optype="continuous" dataType="integer">
				<Apply function="tf(lowercase(lemma))">
					<FieldRef field="lowercase(lemma)"/>
					<Constant dataType="string">cyberviolence</Constant>
				</Apply>
			</DerivedField>
			<DerivedField name="tf(lowercase(lemma), cyprus)" optype="continuous" dataType="integer">
				<Apply function="tf(lowercase(lemma))">
					<FieldRef field="lowercase(lemma)"/>
					<Constant dataType="string">cyprus</Constant>
				</Apply>
			</DerivedField>
			<DerivedField name="tf(lowercase(lemma), czech)" optype="continuous" dataType="integer">
				<Apply function="tf(lowercase(lemma))">
					<FieldRef field="lowercase(lemma)"/>
					<Constant dataType="string">czech</Constant>
				</Apply>
			</DerivedField>
			<DerivedField name="tf(lowercase(lemma), czechia)" optype="continuous" dataType="integer">
				<Apply function="tf(lowercase(lemma))">
					<FieldRef field="lowercase(lemma)"/>
					<Constant dataType="string">czechia</Constant>
				</Apply>
			</DerivedField>
			<DerivedField name="tf(lowercase(lemma), daily)" optype="continuous" dataType="integer">
				<Apply function="tf(lowercase(lemma))">
					<FieldRef field="lowercase(lemma)"/>
					<Constant dataType="string">daily</Constant>
				</Apply>
			</DerivedField>
			<DerivedField name="tf(lowercase(lemma), daisy)" optype="continuous" dataType="integer">
				<Apply function="tf(lowercase(lemma))">
					<FieldRef field="lowercase(lemma)"/>
					<Constant dataType="string">daisy</Constant>
				</Apply>
			</DerivedField>
			<DerivedField name="tf(lowercase(lemma), damage)" optype="continuous" dataType="integer">
				<Apply function="tf(lowercase(lemma))">
					<FieldRef field="lowercase(lemma)"/>
					<Constant dataType="string">damage</Constant>
				</Apply>
			</DerivedField>
			<DerivedField name="tf(lowercase(lemma), damit)" optype="continuous" dataType="integer">
				<Apply function="tf(lowercase(lemma))">
					<FieldRef field="lowercase(lemma)"/>
					<Constant dataType="string">damit</Constant>
				</Apply>
			</DerivedField>
			<DerivedField name="tf(lowercase(lemma), dangerous)" optype="continuous" dataType="integer">
				<Apply function="tf(lowercase(lemma))">
					<FieldRef field="lowercase(lemma)"/>
					<Constant dataType="string">dangerous</Constant>
				</Apply>
			</DerivedField>
			<DerivedField name="tf(lowercase(lemma), daphne)" optype="continuous" dataType="integer">
				<Apply function="tf(lowercase(lemma))">
					<FieldRef field="lowercase(lemma)"/>
					<Constant dataType="string">daphne</Constant>
				</Apply>
			</DerivedField>
			<DerivedField name="tf(lowercase(lemma), darwish)" optype="continuous" dataType="integer">
				<Apply function="tf(lowercase(lemma))">
					<FieldRef field="lowercase(lemma)"/>
					<Constant dataType="string">darwish</Constant>
				</Apply>
			</DerivedField>
			<DerivedField name="tf(lowercase(lemma), das)" optype="continuous" dataType="integer">
				<Apply function="tf(lowercase(lemma))">
					<FieldRef field="lowercase(lemma)"/>
					<Constant dataType="string">das</Constant>
				</Apply>
			</DerivedField>
			<DerivedField name="tf(lowercase(lemma), data)" optype="continuous" dataType="integer">
				<Apply function="tf(lowercase(lemma))">
					<FieldRef field="lowercase(lemma)"/>
					<Constant dataType="string">data</Constant>
				</Apply>
			</DerivedField>
			<DerivedField name="tf(lowercase(lemma), datum)" optype="continuous" dataType="integer">
				<Apply function="tf(lowercase(lemma))">
					<FieldRef field="lowercase(lemma)"/>
					<Constant dataType="string">datum</Constant>
				</Apply>
			</DerivedField>
			<DerivedField name="tf(lowercase(lemma), de)" optype="continuous" dataType="integer">
				<Apply function="tf(lowercase(lemma))">
					<FieldRef field="lowercase(lemma)"/>
					<Constant dataType="string">de</Constant>
				</Apply>
			</DerivedField>
			<DerivedField name="tf(lowercase(lemma), deal)" optype="continuous" dataType="integer">
				<Apply function="tf(lowercase(lemma))">
					<FieldRef field="lowercase(lemma)"/>
					<Constant dataType="string">deal</Constant>
				</Apply>
			</DerivedField>
			<DerivedField name="tf(lowercase(lemma), death)" optype="continuous" dataType="integer">
				<Apply function="tf(lowercase(lemma))">
					<FieldRef field="lowercase(lemma)"/>
					<Constant dataType="string">death</Constant>
				</Apply>
			</DerivedField>
			<DerivedField name="tf(lowercase(lemma), decade)" optype="continuous" dataType="integer">
				<Apply function="tf(lowercase(lemma))">
					<FieldRef field="lowercase(lemma)"/>
					<Constant dataType="string">decade</Constant>
				</Apply>
			</DerivedField>
			<DerivedField name="tf(lowercase(lemma), declaration)" optype="continuous" dataType="integer">
				<Apply function="tf(lowercase(lemma))">
					<FieldRef field="lowercase(lemma)"/>
					<Constant dataType="string">declaration</Constant>
				</Apply>
			</DerivedField>
			<DerivedField name="tf(lowercase(lemma), defence)" optype="continuous" dataType="integer">
				<Apply function="tf(lowercase(lemma))">
					<FieldRef field="lowercase(lemma)"/>
					<Constant dataType="string">defence</Constant>
				</Apply>
			</DerivedField>
			<DerivedField name="tf(lowercase(lemma), defender)" optype="continuous" dataType="integer">
				<Apply function="tf(lowercase(lemma))">
					<FieldRef field="lowercase(lemma)"/>
					<Constant dataType="string">defender</Constant>
				</Apply>
			</DerivedField>
			<DerivedField name="tf(lowercase(lemma), deferred)" optype="continuous" dataType="integer">
				<Apply function="tf(lowercase(lemma))">
					<FieldRef field="lowercase(lemma)"/>
					<Constant dataType="string">deferred</Constant>
				</Apply>
			</DerivedField>
			<DerivedField name="tf(lowercase(lemma), deforestation)" optype="continuous" dataType="integer">
				<Apply function="tf(lowercase(lemma))">
					<FieldRef field="lowercase(lemma)"/>
					<Constant dataType="string">deforestation</Constant>
				</Apply>
			</DerivedField>
			<DerivedField name="tf(lowercase(lemma), delegate)" optype="continuous" dataType="integer">
				<Apply function="tf(lowercase(lemma))">
					<FieldRef field="lowercase(lemma)"/>
					<Constant dataType="string">delegate</Constant>
				</Apply>
			</DerivedField>
			<DerivedField name="tf(lowercase(lemma), delegated)" optype="continuous" dataType="integer">
				<Apply function="tf(lowercase(lemma))">
					<FieldRef field="lowercase(lemma)"/>
					<Constant dataType="string">delegated</Constant>
				</Apply>
			</DerivedField>
			<DerivedField name="tf(lowercase(lemma), delegation)" optype="continuous" dataType="integer">
				<Apply function="tf(lowercase(lemma))">
					<FieldRef field="lowercase(lemma)"/>
					<Constant dataType="string">delegation</Constant>
				</Apply>
			</DerivedField>
			<DerivedField name="tf(lowercase(lemma), deliberation)" optype="continuous" dataType="integer">
				<Apply function="tf(lowercase(lemma))">
					<FieldRef field="lowercase(lemma)"/>
					<Constant dataType="string">deliberation</Constant>
				</Apply>
			</DerivedField>
			<DerivedField name="tf(lowercase(lemma), democracy)" optype="continuous" dataType="integer">
				<Apply function="tf(lowercase(lemma))">
					<FieldRef field="lowercase(lemma)"/>
					<Constant dataType="string">democracy</Constant>
				</Apply>
			</DerivedField>
			<DerivedField name="tf(lowercase(lemma), democratic)" optype="continuous" dataType="integer">
				<Apply function="tf(lowercase(lemma))">
					<FieldRef field="lowercase(lemma)"/>
					<Constant dataType="string">democratic</Constant>
				</Apply>
			</DerivedField>
			<DerivedField name="tf(lowercase(lemma), denmark)" optype="continuous" dataType="integer">
				<Apply function="tf(lowercase(lemma))">
					<FieldRef field="lowercase(lemma)"/>
					<Constant dataType="string">denmark</Constant>
				</Apply>
			</DerivedField>
			<DerivedField name="tf(lowercase(lemma), derivative)" optype="continuous" dataType="integer">
				<Apply function="tf(lowercase(lemma))">
					<FieldRef field="lowercase(lemma)"/>
					<Constant dataType="string">derivative</Constant>
				</Apply>
			</DerivedField>
			<DerivedField name="tf(lowercase(lemma), descent)" optype="continuous" dataType="integer">
				<Apply function="tf(lowercase(lemma))">
					<FieldRef field="lowercase(lemma)"/>
					<Constant dataType="string">descent</Constant>
				</Apply>
			</DerivedField>
			<DerivedField name="tf(lowercase(lemma), designation)" optype="continuous" dataType="integer">
				<Apply function="tf(lowercase(lemma))">
					<FieldRef field="lowercase(lemma)"/>
					<Constant dataType="string">designation</Constant>
				</Apply>
			</DerivedField>
			<DerivedField name="tf(lowercase(lemma), destruction)" optype="continuous" dataType="integer">
				<Apply function="tf(lowercase(lemma))">
					<FieldRef field="lowercase(lemma)"/>
					<Constant dataType="string">destruction</Constant>
				</Apply>
			</DerivedField>
			<DerivedField name="tf(lowercase(lemma), detention)" optype="continuous" dataType="integer">
				<Apply function="tf(lowercase(lemma))">
					<FieldRef field="lowercase(lemma)"/>
					<Constant dataType="string">detention</Constant>
				</Apply>
			</DerivedField>
			<DerivedField name="tf(lowercase(lemma), deterioration)" optype="continuous" dataType="integer">
				<Apply function="tf(lowercase(lemma))">
					<FieldRef field="lowercase(lemma)"/>
					<Constant dataType="string">deterioration</Constant>
				</Apply>
			</DerivedField>
			<DerivedField name="tf(lowercase(lemma), determine)" optype="continuous" dataType="integer">
				<Apply function="tf(lowercase(lemma))">
					<FieldRef field="lowercase(lemma)"/>
					<Constant dataType="string">determine</Constant>
				</Apply>
			</DerivedField>
			<DerivedField name="tf(lowercase(lemma), develop)" optype="continuous" dataType="integer">
				<Apply function="tf(lowercase(lemma))">
					<FieldRef field="lowercase(lemma)"/>
					<Constant dataType="string">develop</Constant>
				</Apply>
			</DerivedField>
			<DerivedField name="tf(lowercase(lemma), development)" optype="continuous" dataType="integer">
				<Apply function="tf(lowercase(lemma))">
					<FieldRef field="lowercase(lemma)"/>
					<Constant dataType="string">development</Constant>
				</Apply>
			</DerivedField>
			<DerivedField name="tf(lowercase(lemma), device)" optype="continuous" dataType="integer">
				<Apply function="tf(lowercase(lemma))">
					<FieldRef field="lowercase(lemma)"/>
					<Constant dataType="string">device</Constant>
				</Apply>
			</DerivedField>
			<DerivedField name="tf(lowercase(lemma), diagnostic)" optype="continuous" dataType="integer">
				<Apply function="tf(lowercase(lemma))">
					<FieldRef field="lowercase(lemma)"/>
					<Constant dataType="string">diagnostic</Constant>
				</Apply>
			</DerivedField>
			<DerivedField name="tf(lowercase(lemma), die)" optype="continuous" dataType="integer">
				<Apply function="tf(lowercase(lemma))">
					<FieldRef field="lowercase(lemma)"/>
					<Constant dataType="string">die</Constant>
				</Apply>
			</DerivedField>
			<DerivedField name="tf(lowercase(lemma), difenoconazole)" optype="continuous" dataType="integer">
				<Apply function="tf(lowercase(lemma))">
					<FieldRef field="lowercase(lemma)"/>
					<Constant dataType="string">difenoconazole</Constant>
				</Apply>
			</DerivedField>
			<DerivedField name="tf(lowercase(lemma), different)" optype="continuous" dataType="integer">
				<Apply function="tf(lowercase(lemma))">
					<FieldRef field="lowercase(lemma)"/>
					<Constant dataType="string">different</Constant>
				</Apply>
			</DerivedField>
			<DerivedField name="tf(lowercase(lemma), digital)" optype="continuous" dataType="integer">
				<Apply function="tf(lowercase(lemma))">
					<FieldRef field="lowercase(lemma)"/>
					<Constant dataType="string">digital</Constant>
				</Apply>
			</DerivedField>
			<DerivedField name="tf(lowercase(lemma), digitalisation)" optype="continuous" dataType="integer">
				<Apply function="tf(lowercase(lemma))">
					<FieldRef field="lowercase(lemma)"/>
					<Constant dataType="string">digitalisation</Constant>
				</Apply>
			</DerivedField>
			<DerivedField name="tf(lowercase(lemma), diligence)" optype="continuous" dataType="integer">
				<Apply function="tf(lowercase(lemma))">
					<FieldRef field="lowercase(lemma)"/>
					<Constant dataType="string">diligence</Constant>
				</Apply>
			</DerivedField>
			<DerivedField name="tf(lowercase(lemma), dimension)" optype="continuous" dataType="integer">
				<Apply function="tf(lowercase(lemma))">
					<FieldRef field="lowercase(lemma)"/>
					<Constant dataType="string">dimension</Constant>
				</Apply>
			</DerivedField>
			<DerivedField name="tf(lowercase(lemma), dimoxystrobin)" optype="continuous" dataType="integer">
				<Apply function="tf(lowercase(lemma))">
					<FieldRef field="lowercase(lemma)"/>
					<Constant dataType="string">dimoxystrobin</Constant>
				</Apply>
			</DerivedField>
			<DerivedField name="tf(lowercase(lemma), directive)" optype="continuous" dataType="integer">
				<Apply function="tf(lowercase(lemma))">
					<FieldRef field="lowercase(lemma)"/>
					<Constant dataType="string">directive</Constant>
				</Apply>
			</DerivedField>
			<DerivedField name="tf(lowercase(lemma), directives)" optype="continuous" dataType="integer">
				<Apply function="tf(lowercase(lemma))">
					<FieldRef field="lowercase(lemma)"/>
					<Constant dataType="string">directives</Constant>
				</Apply>
			</DerivedField>
			<DerivedField name="tf(lowercase(lemma), disability)" optype="continuous" dataType="integer">
				<Apply function="tf(lowercase(lemma))">
					<FieldRef field="lowercase(lemma)"/>
					<Constant dataType="string">disability</Constant>
				</Apply>
			</DerivedField>
			<DerivedField name="tf(lowercase(lemma), disarmament)" optype="continuous" dataType="integer">
				<Apply function="tf(lowercase(lemma))">
					<FieldRef field="lowercase(lemma)"/>
					<Constant dataType="string">disarmament</Constant>
				</Apply>
			</DerivedField>
			<DerivedField name="tf(lowercase(lemma), disaster)" optype="continuous" dataType="integer">
				<Apply function="tf(lowercase(lemma))">
					<FieldRef field="lowercase(lemma)"/>
					<Constant dataType="string">disaster</Constant>
				</Apply>
			</DerivedField>
			<DerivedField name="tf(lowercase(lemma), discharge)" optype="continuous" dataType="integer">
				<Apply function="tf(lowercase(lemma))">
					<FieldRef field="lowercase(lemma)"/>
					<Constant dataType="string">discharge</Constant>
				</Apply>
			</DerivedField>
			<DerivedField name="tf(lowercase(lemma), disclosures)" optype="continuous" dataType="integer">
				<Apply function="tf(lowercase(lemma))">
					<FieldRef field="lowercase(lemma)"/>
					<Constant dataType="string">disclosures</Constant>
				</Apply>
			</DerivedField>
			<DerivedField name="tf(lowercase(lemma), discrimination)" optype="continuous" dataType="integer">
				<Apply function="tf(lowercase(lemma))">
					<FieldRef field="lowercase(lemma)"/>
					<Constant dataType="string">discrimination</Constant>
				</Apply>
			</DerivedField>
			<DerivedField name="tf(lowercase(lemma), disease)" optype="continuous" dataType="integer">
				<Apply function="tf(lowercase(lemma))">
					<FieldRef field="lowercase(lemma)"/>
					<Constant dataType="string">disease</Constant>
				</Apply>
			</DerivedField>
			<DerivedField name="tf(lowercase(lemma), disparity)" optype="continuous" dataType="integer">
				<Apply function="tf(lowercase(lemma))">
					<FieldRef field="lowercase(lemma)"/>
					<Constant dataType="string">disparity</Constant>
				</Apply>
			</DerivedField>
			<DerivedField name="tf(lowercase(lemma), dispute)" optype="continuous" dataType="integer">
				<Apply function="tf(lowercase(lemma))">
					<FieldRef field="lowercase(lemma)"/>
					<Constant dataType="string">dispute</Constant>
				</Apply>
			</DerivedField>
			<DerivedField name="tf(lowercase(lemma), distortive)" optype="continuous" dataType="integer">
				<Apply function="tf(lowercase(lemma))">
					<FieldRef field="lowercase(lemma)"/>
					<Constant dataType="string">distortive</Constant>
				</Apply>
			</DerivedField>
			<DerivedField name="tf(lowercase(lemma), djalali)" optype="continuous" dataType="integer">
				<Apply function="tf(lowercase(lemma))">
					<FieldRef field="lowercase(lemma)"/>
					<Constant dataType="string">djalali</Constant>
				</Apply>
			</DerivedField>
			<DerivedField name="tf(lowercase(lemma), dock)" optype="continuous" dataType="integer">
				<Apply function="tf(lowercase(lemma))">
					<FieldRef field="lowercase(lemma)"/>
					<Constant dataType="string">dock</Constant>
				</Apply>
			</DerivedField>
